{"learner":{"attributes":{"best_iteration":"124","best_score":"0.3245067720114738","scikit_learn":"{\"_estimator_type\": \"regressor\"}"},"feature_names":[],"feature_types":[],"gradient_booster":{"model":{"cats":{"enc":[],"feature_segments":[],"sorted_idx":[]},"gbtree_model_param":{"num_parallel_tree":"1","num_trees":"145"},"iteration_indptr":[0,1,2,3,4,5,6,7,8,9,10,11,12,13,14,15,16,17,18,19,20,21,22,23,24,25,26,27,28,29,30,31,32,33,34,35,36,37,38,39,40,41,42,43,44,45,46,47,48,49,50,51,52,53,54,55,56,57,58,59,60,61,62,63,64,65,66,67,68,69,70,71,72,73,74,75,76,77,78,79,80,81,82,83,84,85,86,87,88,89,90,91,92,93,94,95,96,97,98,99,100,101,102,103,104,105,106,107,108,109,110,111,112,113,114,115,116,117,118,119,120,121,122,123,124,125,126,127,128,129,130,131,132,133,134,135,136,137,138,139,140,141,142,143,144,145],"tree_info":[0,0,0,0,0,0,0,0,0,0,0,0,0,0,0,0,0,0,0,0,0,0,0,0,0,0,0,0,0,0,0,0,0,0,0,0,0,0,0,0,0,0,0,0,0,0,0,0,0,0,0,0,0,0,0,0,0,0,0,0,0,0,0,0,0,0,0,0,0,0,0,0,0,0,0,0,0,0,0,0,0,0,0,0,0,0,0,0,0,0,0,0,0,0,0,0,0,0,0,0,0,0,0,0,0,0,0,0,0,0,0,0,0,0,0,0,0,0,0,0,0,0,0,0,0,0,0,0,0,0,0,0,0,0,0,0,0,0,0,0,0,0,0,0,0],"trees":[{"base_weights":[2.053904E-2,-5.4834664E-1,3.0066435E1,-1.2113453E0,4.4851255E0,2.0098188E1,3.9544758E1,-1.7745761E0,9.760953E-2,3.1615996E0,8.855625E0,1.7622808E1,1.96268E0,2.7342978E0,3.397043E0,-2.047358E0,-1.2867908E0,-3.6109257E-1,8.4933054E-1,2.4339588E0,4.5033097E0,7.2847757E0,1.1441645E1,1.2441233E0,1.5298846E0,-2.149351E0,-1.8041197E0,-1.4608648E0,-1.0619764E0,-6.164034E-1,-8.1291795E-2,5.2839255E-1,1.2124091E0,2.0159562E0,2.895084E0,3.9374208E0,5.1870737E0,5.2943987E-1,6.55692E-1,7.8316075E-1,9.7147167E-1,-1.760976E-1,-1.6415918E-1,-1.481931E-1,-1.359646E-1,-1.2432097E-1,-1.0815864E-1,-9.2117086E-2,-7.61585E-2,-6.021042E-2,-4.0731482E-2,-1.671344E-2,7.7739493E-3,3.136024E-2,5.5128727E-2,8.329528E-2,1.14582755E-1,1.4680444E-1,1.7855828E-1,2.1283309E-1,2.5409424E-1,2.8866026E-1,3.334818E-1,3.890552E-1,4.4194233E-1],"categories":[],"categories_nodes":[],"categories_segments":[],"categories_sizes":[],"default_left":[0,0,0,0,0,0,0,0,0,0,0,0,0,0,0,0,0,0,0,0,0,0,0,0,0,0,0,0,0,0,0,0,0,0,0,0,0,0,0,0,0,0,0,0,0,0,0,0,0,0,0,0,0,0,0,0,0,0,0,0,0,0,0,0,0],"id":0,"left_children":[1,3,5,7,9,11,13,15,17,19,21,23,-1,-1,-1,25,27,29,31,33,35,37,39,-1,-1,41,43,45,47,49,51,53,55,57,59,61,63,-1,-1,-1,-1,-1,-1,-1,-1,-1,-1,-1,-1,-1,-1,-1,-1,-1,-1,-1,-1,-1,-1,-1,-1,-1,-1,-1,-1],"loss_changes":[3.6793934E5,7.0506484E4,3.6992156E4,1.3763203E4,1.41948125E4,1.7263125E3,1.7355625E3,1.7337188E3,1.937187E3,1.832543E3,2.2343203E3,1.0323047E2,0E0,0E0,0E0,2.0335156E2,1.8150195E2,2.4912094E2,2.4726855E2,2.3017871E2,2.3520215E2,1.6182617E2,1.2703711E2,0E0,0E0,2.4810547E1,9.015137E0,2.4353027E1,1.8852295E1,2.6142273E1,3.7977894E1,2.4435272E1,3.5832764E1,2.078125E1,2.9291992E1,1.2099609E1,4.532715E0,0E0,0E0,0E0,0E0,0E0,0E0,0E0,0E0,0E0,0E0,0E0,0E0,0E0,0E0,0E0,0E0,0E0,0E0,0E0,0E0,0E0,0E0,0E0,0E0,0E0,0E0,0E0,0E0],"parents":[2147483647,0,0,1,1,2,2,3,3,4,4,5,5,6,6,7,7,8,8,9,9,10,10,11,11,15,15,16,16,17,17,18,18,19,19,20,20,21,21,22,22,25,25,26,26,27,27,28,28,29,29,30,30,31,31,32,32,33,33,34,34,35,35,36,36],"right_children":[2,4,6,8,10,12,14,16,18,20,22,24,-1,-1,-1,26,28,30,32,34,36,38,40,-1,-1,42,44,46,48,50,52,54,56,58,60,62,64,-1,-1,-1,-1,-1,-1,-1,-1,-1,-1,-1,-1,-1,-1,-1,-1,-1,-1,-1,-1,-1,-1,-1,-1,-1,-1,-1,-1],"split_conditions":[1.65E1,3.9E0,3.09E1,1.4E0,8.2E0,2.4E1,4.5E1,6E-1,2.5E0,5.7E0,1.14E1,1.97E1,1.96268E0,2.7342978E0,3.397043E0,3E-1,1E0,1.9E0,3.1E0,4.7E0,6.8E0,9.7E0,1.29E1,1.2441233E0,1.5298846E0,1E-1,5E-1,8E-1,1.2E0,1.6E0,2.2E0,2.8E0,3.5E0,4.3E0,5.2E0,6.1E0,7.5E0,5.2943987E-1,6.55692E-1,7.8316075E-1,9.7147167E-1,-1.760976E-1,-1.6415918E-1,-1.481931E-1,-1.359646E-1,-1.2432097E-1,-1.0815864E-1,-9.2117086E-2,-7.61585E-2,-6.021042E-2,-4.0731482E-2,-1.671344E-2,7.7739493E-3,3.136024E-2,5.5128727E-2,8.329528E-2,1.14582755E-1,1.4680444E-1,1.7855828E-1,2.1283309E-1,2.5409424E-1,2.8866026E-1,3.334818E-1,3.890552E-1,4.4194233E-1],"split_indices":[13,13,13,13,13,13,13,13,13,13,13,13,0,0,0,13,13,13,13,13,13,13,13,0,0,13,13,13,13,13,13,13,13,13,13,13,13,0,0,0,0,0,0,0,0,0,0,0,0,0,0,0,0,0,0,0,0,0,0,0,0,0,0,0,0],"split_type":[0,0,0,0,0,0,0,0,0,0,0,0,0,0,0,0,0,0,0,0,0,0,0,0,0,0,0,0,0,0,0,0,0,0,0,0,0,0,0,0,0,0,0,0,0,0,0,0,0,0,0,0,0,0,0,0,0,0,0,0,0,0,0,0,0],"sum_hessian":[2.1524E4,2.1125E4,3.99E2,1.8667E4,2.458E3,1.96E2,2.03E2,1.3051E4,5.616E3,1.888E3,5.7E2,1.29E2,6.7E1,7.6E1,1.27E2,8.368E3,4.683E3,3.488E3,2.128E3,1.226E3,6.62E2,3.57E2,2.13E2,5.9E1,7E1,5.89E3,2.478E3,2.636E3,2.047E3,1.823E3,1.665E3,1.131E3,9.97E2,6.46E2,5.8E2,3.66E2,2.96E2,2.11E2,1.46E2,6.8E1,1.45E2,3.828E3,2.062E3,1.683E3,7.95E2,1.413E3,1.223E3,1.123E3,9.24E2,8E2,1.023E3,9.71E2,6.94E2,6.14E2,5.17E2,5.64E2,4.33E2,3.57E2,2.89E2,3.22E2,2.58E2,1.58E2,2.08E2,1.59E2,1.37E2],"tree_param":{"num_deleted":"0","num_feature":"32","num_nodes":"65","size_leaf_vector":"1"}},{"base_weights":[-1.0698368E-2,-5.1147264E-1,2.724733E1,-1.1152753E0,4.1475205E0,1.8538002E1,3.655241E1,-1.6306536E0,9.1689035E-2,3.0159018E0,8.558666E0,1.6214527E1,1.8056893E0,2.5126162E0,3.1261883E0,-1.8823854E0,-1.1829432E0,-3.3221674E-1,7.7876693E-1,2.3084857E0,4.4313846E0,6.9715247E0,1.0532094E1,1.1477479E0,1.4113585E0,-2.0058773E0,-1.710005E0,-1.3447505E0,-9.769841E-1,-5.656152E-1,-7.331343E-2,5.280763E-1,1.1650245E0,1.9023448E0,2.8038454E0,3.889055E0,5.1235676E0,5.058704E-1,6.0276425E-1,7.759515E-1,9.6340495E-1,-1.620135E-1,-1.5486272E-1,-1.4367263E-1,-1.2872578E-1,-1.14360586E-1,-9.9597484E-2,-8.47617E-2,-7.008035E-2,-5.20361E-2,-3.3085827E-2,-1.53130125E-2,6.971391E-3,3.273233E-2,5.833929E-2,8.398527E-2,1.0975562E-1,1.3864782E-1,1.72674E-1,2.0349476E-1,2.4460651E-1,2.9183722E-1,3.3891052E-1,3.826875E-1,4.3411958E-1],"categories":[],"categories_nodes":[],"categories_segments":[],"categories_sizes":[],"default_left":[0,0,0,0,0,0,0,0,0,0,0,0,0,0,0,0,0,0,0,0,0,0,0,0,0,0,0,0,0,0,0,0,0,0,0,0,0,0,0,0,0,0,0,0,0,0,0,0,0,0,0,0,0,0,0,0,0,0,0,0,0,0,0,0,0],"id":1,"left_children":[1,3,5,7,9,11,13,15,17,19,21,23,-1,-1,-1,25,27,29,31,33,35,37,39,-1,-1,41,43,45,47,49,51,53,55,57,59,61,63,-1,-1,-1,-1,-1,-1,-1,-1,-1,-1,-1,-1,-1,-1,-1,-1,-1,-1,-1,-1,-1,-1,-1,-1,-1,-1,-1,-1],"loss_changes":[2.9585028E5,5.9875793E4,3.1003906E4,1.1720844E4,1.2162844E4,1.5417891E3,1.2077812E3,1.4855938E3,1.6426978E3,1.9366934E3,1.4846172E3,9.827344E1,0E0,0E0,0E0,1.7608008E2,1.5691699E2,2.1066623E2,2.0759619E2,2.5553613E2,2.2205176E2,5.2783203E1,1.5772852E2,0E0,0E0,2.3320312E0,2.7411133E1,2.0449219E1,1.6347534E1,2.3280762E1,3.1388876E1,3.0855103E1,1.8485352E1,2.6945557E1,3.014746E1,1.448877E1,1.9604492E0,0E0,0E0,0E0,0E0,0E0,0E0,0E0,0E0,0E0,0E0,0E0,0E0,0E0,0E0,0E0,0E0,0E0,0E0,0E0,0E0,0E0,0E0,0E0,0E0,0E0,0E0,0E0,0E0],"parents":[2147483647,0,0,1,1,2,2,3,3,4,4,5,5,6,6,7,7,8,8,9,9,10,10,11,11,15,15,16,16,17,17,18,18,19,19,20,20,21,21,22,22,25,25,26,26,27,27,28,28,29,29,30,30,31,31,32,32,33,33,34,34,35,35,36,36],"right_children":[2,4,6,8,10,12,14,16,18,20,22,24,-1,-1,-1,26,28,30,32,34,36,38,40,-1,-1,42,44,46,48,50,52,54,56,58,60,62,64,-1,-1,-1,-1,-1,-1,-1,-1,-1,-1,-1,-1,-1,-1,-1,-1,-1,-1,-1,-1,-1,-1,-1,-1,-1,-1,-1,-1],"split_conditions":[1.65E1,3.9E0,3.09E1,1.4E0,8.7E0,2.4E1,4.5E1,6E-1,2.5E0,5.9E0,1.14E1,1.97E1,1.8056893E0,2.5126162E0,3.1261883E0,2E-1,1E0,1.9E0,3.2E0,4.8E0,7.2E0,9.7E0,1.45E1,1.1477479E0,1.4113585E0,1E-1,4E-1,8E-1,1.2E0,1.7E0,2.2E0,2.9E0,3.6E0,4.4E0,5.3E0,6.6E0,7.8E0,5.058704E-1,6.0276425E-1,7.759515E-1,9.6340495E-1,-1.620135E-1,-1.5486272E-1,-1.4367263E-1,-1.2872578E-1,-1.14360586E-1,-9.9597484E-2,-8.47617E-2,-7.008035E-2,-5.20361E-2,-3.3085827E-2,-1.53130125E-2,6.971391E-3,3.273233E-2,5.833929E-2,8.398527E-2,1.0975562E-1,1.3864782E-1,1.72674E-1,2.0349476E-1,2.4460651E-1,2.9183722E-1,3.3891052E-1,3.826875E-1,4.3411958E-1],"split_indices":[13,13,13,13,13,13,13,13,13,13,13,13,0,0,0,13,13,13,13,13,13,13,13,0,0,13,13,13,13,13,13,13,13,13,13,13,13,0,0,0,0,0,0,0,0,0,0,0,0,0,0,0,0,0,0,0,0,0,0,0,0,0,0,0,0],"split_type":[0,0,0,0,0,0,0,0,0,0,0,0,0,0,0,0,0,0,0,0,0,0,0,0,0,0,0,0,0,0,0,0,0,0,0,0,0,0,0,0,0,0,0,0,0,0,0,0,0,0,0,0,0,0,0,0,0,0,0,0,0,0,0,0,0],"sum_hessian":[2.1672E4,2.1282E4,3.9E2,1.8841E4,2.441E3,2.03E2,1.87E2,1.3203E4,5.638E3,1.944E3,4.97E2,1.32E2,7.1E1,6.6E1,1.21E2,8.449E3,4.754E3,3.487E3,2.151E3,1.298E3,6.46E2,2.78E2,2.19E2,6.2E1,7E1,4.916E3,3.533E3,2.659E3,2.095E3,1.833E3,1.654E3,1.306E3,8.45E2,7.16E2,5.82E2,3.66E2,2.8E2,1.35E2,1.43E2,1.46E2,7.3E1,3.832E3,1.084E3,1.899E3,1.634E3,1.43E3,1.229E3,1.147E3,9.48E2,1.174E3,6.59E2,9.53E2,7.01E2,8.23E2,4.83E2,5.47E2,2.98E2,4.36E2,2.8E2,2.93E2,2.89E2,2.23E2,1.43E2,1.4E2,1.4E2],"tree_param":{"num_deleted":"0","num_feature":"32","num_nodes":"65","size_leaf_vector":"1"}},{"base_weights":[8.450373E-3,-4.675379E-1,2.51599E1,-1.0332611E0,3.6913764E0,1.697221E1,3.359468E1,-1.4990528E0,6.414283E-2,2.6123621E0,7.5281687E0,1.4926074E1,1.6562936E0,2.3100717E0,2.8789008E0,-1.7322674E0,-1.0913755E0,-3.3948353E-1,6.3933045E-1,1.9689184E0,3.7526534E0,6.201592E0,9.694169E0,1.0598198E0,1.2986027E0,-1.8195174E0,-1.5282527E0,-1.237723E0,-8.987019E-1,-5.5929124E-1,-1.481601E-1,3.668472E-1,9.4881207E-1,1.6152259E0,2.3598998E0,3.2852907E0,4.4056206E0,4.4921505E-1,5.568433E-1,6.573291E-1,8.3279914E-1,-1.4905502E-1,-1.3908643E-1,-1.255142E-1,-1.1481096E-1,-1.051348E-1,-9.162632E-2,-7.8015E-2,-6.447601E-2,-5.118203E-2,-3.750474E-2,-2.0458214E-2,-5.426051E-4,1.9579751E-2,4.036762E-2,6.361572E-2,9.091818E-2,1.1706973E-1,1.4443281E-1,1.7151086E-1,2.0564467E-1,2.4196008E-1,2.823968E-1,3.3037952E-1,3.7560183E-1],"categories":[],"categories_nodes":[],"categories_segments":[],"categories_sizes":[],"default_left":[0,0,0,0,0,0,0,0,0,0,0,0,0,0,0,0,0,0,0,0,0,0,0,0,0,0,0,0,0,0,0,0,0,0,0,0,0,0,0,0,0,0,0,0,0,0,0,0,0,0,0,0,0,0,0,0,0,0,0,0,0,0,0,0,0],"id":2,"left_children":[1,3,5,7,9,11,13,15,17,19,21,23,-1,-1,-1,25,27,29,31,33,35,37,39,-1,-1,41,43,45,47,49,51,53,55,57,59,61,63,-1,-1,-1,-1,-1,-1,-1,-1,-1,-1,-1,-1,-1,-1,-1,-1,-1,-1,-1,-1,-1,-1,-1,-1,-1,-1,-1,-1],"loss_changes":[2.5782686E5,4.9732203E4,2.7049297E4,9.510914E3,1.0457547E4,1.2526055E3,1.1662969E3,1.2397168E3,1.2875791E3,1.4425898E3,1.5330059E3,8.021094E1,0E0,0E0,0E0,1.4475E2,1.3278027E2,1.3690161E2,1.9237988E2,1.708623E2,2.0204004E2,1.1408984E2,1.336543E2,0E0,0E0,1.6947266E1,6.897461E0,1.7323242E1,1.3628662E1,1.0629272E1,2.6494133E1,2.0287216E1,2.974939E1,1.632312E1,2.127539E1,1.540332E1,3.2016602E0,0E0,0E0,0E0,0E0,0E0,0E0,0E0,0E0,0E0,0E0,0E0,0E0,0E0,0E0,0E0,0E0,0E0,0E0,0E0,0E0,0E0,0E0,0E0,0E0,0E0,0E0,0E0,0E0],"parents":[2147483647,0,0,1,1,2,2,3,3,4,4,5,5,6,6,7,7,8,8,9,9,10,10,11,11,15,15,16,16,17,17,18,18,19,19,20,20,21,21,22,22,25,25,26,26,27,27,28,28,29,29,30,30,31,31,32,32,33,33,34,34,35,35,36,36],"right_children":[2,4,6,8,10,12,14,16,18,20,22,24,-1,-1,-1,26,28,30,32,34,36,38,40,-1,-1,42,44,46,48,50,52,54,56,58,60,62,64,-1,-1,-1,-1,-1,-1,-1,-1,-1,-1,-1,-1,-1,-1,-1,-1,-1,-1,-1,-1,-1,-1,-1,-1,-1,-1,-1,-1],"split_conditions":[1.65E1,3.8E0,3.09E1,1.4E0,8.2E0,2.4E1,4.5E1,6E-1,2.4E0,5.6E0,1.14E1,1.97E1,1.6562936E0,2.3100717E0,2.8789008E0,3E-1,1E0,1.8E0,3E0,4.6E0,6.8E0,9.7E0,1.29E1,1.0598198E0,1.2986027E0,1E-1,5E-1,8E-1,1.2E0,1.6E0,2.1E0,2.7E0,3.4E0,4.2E0,5E0,6.1E0,7.5E0,4.4921505E-1,5.568433E-1,6.573291E-1,8.3279914E-1,-1.4905502E-1,-1.3908643E-1,-1.255142E-1,-1.1481096E-1,-1.051348E-1,-9.162632E-2,-7.8015E-2,-6.447601E-2,-5.118203E-2,-3.750474E-2,-2.0458214E-2,-5.426051E-4,1.9579751E-2,4.036762E-2,6.361572E-2,9.091818E-2,1.1706973E-1,1.4443281E-1,1.7151086E-1,2.0564467E-1,2.4196008E-1,2.823968E-1,3.3037952E-1,3.7560183E-1],"split_indices":[13,13,13,13,13,13,13,13,13,13,13,13,0,0,0,13,13,13,13,13,13,13,13,0,0,13,13,13,13,13,13,13,13,13,13,13,13,0,0,0,0,0,0,0,0,0,0,0,0,0,0,0,0,0,0,0,0,0,0,0,0,0,0,0,0],"split_type":[0,0,0,0,0,0,0,0,0,0,0,0,0,0,0,0,0,0,0,0,0,0,0,0,0,0,0,0,0,0,0,0,0,0,0,0,0,0,0,0,0,0,0,0,0,0,0,0,0,0,0,0,0,0,0,0,0,0,0,0,0,0,0,0,0],"sum_hessian":[2.1534E4,2.1135E4,3.99E2,1.8605E4,2.53E3,2.04E2,1.95E2,1.3061E4,5.544E3,1.976E3,5.54E2,1.35E2,6.9E1,7E1,1.25E2,8.306E3,4.755E3,3.258E3,2.286E3,1.265E3,7.11E2,3.46E2,2.08E2,6.4E1,7.1E1,5.812E3,2.494E3,2.699E3,2.056E3,1.515E3,1.743E3,1.217E3,1.069E3,6.67E2,5.98E2,4.18E2,2.93E2,2E2,1.46E2,7.2E1,1.36E2,3.76E3,2.052E3,1.724E3,7.7E2,1.469E3,1.23E3,1.121E3,9.35E2,7.98E2,7.17E2,9.89E2,7.54E2,6.47E2,5.7E2,5.91E2,4.78E2,3.76E2,2.91E2,3.01E2,2.97E2,2.09E2,2.09E2,1.58E2,1.35E2],"tree_param":{"num_deleted":"0","num_feature":"32","num_nodes":"65","size_leaf_vector":"1"}},{"base_weights":[-2.0892732E-2,-4.3226686E-1,2.2803703E1,-9.3269134E-1,3.6217654E0,1.5445074E1,3.0804695E1,-1.3569336E0,1.5295614E-1,2.6240406E0,7.2567286E0,1.3588834E1,1.5227618E0,2.1248708E0,2.648178E0,-1.5939456E0,-9.7445804E-1,-2.0653386E-1,7.4094254E-1,2.0010955E0,3.7507348E0,6.287877E0,7.728932E-1,9.626055E-1,1.1939323E0,-1.6990877E0,-1.4483747E0,-1.1385679E0,-7.964993E-1,-3.973018E-1,1.7021798E-2,5.247354E-1,1.0697594E0,1.7009699E0,2.4335008E0,3.280801E0,4.3370113E0,4.4700283E-1,5.7931715E-1,-1.3713434E-1,-1.3136302E-1,-1.2165312E-1,-1.08860776E-1,-9.6819244E-2,-8.4354945E-2,-6.9332585E-2,-5.324016E-2,-4.0400803E-2,-2.5246223E-2,-6.7320336E-3,1.2343896E-2,3.1434067E-2,5.195252E-2,7.732547E-2,9.9339485E-2,1.23889826E-1,1.526554E-1,1.7921726E-1,2.1046893E-1,2.3655711E-1,2.7643368E-1,3.249298E-1,3.6755812E-1],"categories":[],"categories_nodes":[],"categories_segments":[],"categories_sizes":[],"default_left":[0,0,0,0,0,0,0,0,0,0,0,0,0,0,0,0,0,0,0,0,0,0,0,0,0,0,0,0,0,0,0,0,0,0,0,0,0,0,0,0,0,0,0,0,0,0,0,0,0,0,0,0,0,0,0,0,0,0,0,0,0,0,0],"id":3,"left_children":[1,3,5,7,9,11,13,15,17,19,21,23,-1,-1,-1,25,27,29,31,33,35,37,-1,-1,-1,39,41,43,45,47,49,51,53,55,57,59,61,-1,-1,-1,-1,-1,-1,-1,-1,-1,-1,-1,-1,-1,-1,-1,-1,-1,-1,-1,-1,-1,-1,-1,-1,-1,-1],"loss_changes":[2.0259436E5,4.300219E4,2.2010344E4,8.690045E3,8.426539E3,1.0773164E3,8.89375E2,1.2279629E3,1.1209181E3,1.2756377E3,1.1047578E3,1.0035156E2,0E0,0E0,0E0,1.2539453E2,1.5055957E2,1.4039688E2,1.423175E2,1.485835E2,1.6409082E2,1.9867578E2,0E0,0E0,0E0,1.0292969E0,1.9930176E1,1.4772217E1,2.2200317E1,1.5391571E1,2.1075127E1,1.9622925E1,1.2723511E1,1.8798096E1,1.1967529E1,9.781738E0,7.519531E-1,0E0,0E0,0E0,0E0,0E0,0E0,0E0,0E0,0E0,0E0,0E0,0E0,0E0,0E0,0E0,0E0,0E0,0E0,0E0,0E0,0E0,0E0,0E0,0E0,0E0,0E0],"parents":[2147483647,0,0,1,1,2,2,3,3,4,4,5,5,6,6,7,7,8,8,9,9,10,10,11,11,15,15,16,16,17,17,18,18,19,19,20,20,21,21,25,25,26,26,27,27,28,28,29,29,30,30,31,31,32,32,33,33,34,34,35,35,36,36],"right_children":[2,4,6,8,10,12,14,16,18,20,22,24,-1,-1,-1,26,28,30,32,34,36,38,-1,-1,-1,40,42,44,46,48,50,52,54,56,58,60,62,-1,-1,-1,-1,-1,-1,-1,-1,-1,-1,-1,-1,-1,-1,-1,-1,-1,-1,-1,-1,-1,-1,-1,-1,-1,-1],"split_conditions":[1.65E1,4E0,3.09E1,1.5E0,8.7E0,2.4E1,4.5E1,6E-1,2.6E0,5.9E0,1.29E1,1.97E1,1.5227618E0,2.1248708E0,2.648178E0,2E-1,1E0,2E0,3.3E0,4.9E0,7.2E0,1.05E1,7.728932E-1,9.626055E-1,1.1939323E0,1E-1,4E-1,8E-1,1.3E0,1.7E0,2.3E0,2.9E0,3.7E0,4.5E0,5.4E0,6.3E0,7.8E0,4.4700283E-1,5.7931715E-1,-1.3713434E-1,-1.3136302E-1,-1.2165312E-1,-1.08860776E-1,-9.6819244E-2,-8.4354945E-2,-6.9332585E-2,-5.324016E-2,-4.0400803E-2,-2.5246223E-2,-6.7320336E-3,1.2343896E-2,3.1434067E-2,5.195252E-2,7.732547E-2,9.9339485E-2,1.23889826E-1,1.526554E-1,1.7921726E-1,2.1046893E-1,2.3655711E-1,2.7643368E-1,3.249298E-1,3.6755812E-1],"split_indices":[13,13,13,13,13,13,13,13,13,13,13,13,0,0,0,13,13,13,13,13,13,13,0,0,0,13,13,13,13,13,13,13,13,13,13,13,13,0,0,0,0,0,0,0,0,0,0,0,0,0,0,0,0,0,0,0,0,0,0,0,0,0,0],"split_type":[0,0,0,0,0,0,0,0,0,0,0,0,0,0,0,0,0,0,0,0,0,0,0,0,0,0,0,0,0,0,0,0,0,0,0,0,0,0,0,0,0,0,0,0,0,0,0,0,0,0,0,0,0,0,0,0,0,0,0,0,0,0,0],"sum_hessian":[2.1575E4,2.1194E4,3.81E2,1.8866E4,2.328E3,2E2,1.81E2,1.3565E4,5.301E3,1.828E3,5E2,1.35E2,6.5E1,6.8E1,1.13E2,8.373E3,5.192E3,3.29E3,2.011E3,1.179E3,6.49E2,3.59E2,1.41E2,6.7E1,6.8E1,4.855E3,3.518E3,2.698E3,2.494E3,1.775E3,1.515E3,1.215E3,7.96E2,6.99E2,4.8E2,3.64E2,2.85E2,2.11E2,1.48E2,3.815E3,1.04E3,1.918E3,1.6E3,1.449E3,1.249E3,1.62E3,8.74E2,7.63E2,1.012E3,8.72E2,6.43E2,5.93E2,6.22E2,5.02E2,2.94E2,4.08E2,2.91E2,2.49E2,2.31E2,1.34E2,2.3E2,1.46E2,1.39E2],"tree_param":{"num_deleted":"0","num_feature":"32","num_nodes":"63","size_leaf_vector":"1"}},{"base_weights":[-6.3839294E-3,-4.0611115E-1,2.10613E1,-8.7645215E-1,3.1305747E0,1.4329767E1,2.8460897E1,-1.268492E0,5.471199E-2,2.2017906E0,6.327259E0,1.2622438E1,1.4089166E0,1.9632299E0,2.439434E0,-1.4659188E0,-9.1971296E-1,-2.909074E-1,5.406744E-1,1.6774564E0,3.160581E0,5.235736E0,8.209796E0,8.9596814E-1,1.106561E0,-1.5406342E0,-1.2918901E0,-1.0844135E0,-7.956294E-1,-4.7608918E-1,-1.2626535E-1,3.3932072E-1,8.417896E-1,1.3755382E0,2.0053105E0,2.7803938E0,2.986305E-1,3.6000904E-1,5.643587E0,6.0057586E-1,7.6179373E-1,-1.2616627E-1,-1.1783048E-1,-1.06257476E-1,-9.694537E-2,-9.276084E-2,-8.315885E-2,-7.17504E-2,-5.7293285E-2,-4.3465737E-2,-3.199162E-2,-1.720695E-2,-3.463643E-4,1.6758658E-2,3.667358E-2,5.699129E-2,7.6696984E-2,9.624131E-2,1.20151244E-1,1.4504126E-1,1.7455009E-1,2.0486766E-1,2.3863418E-1,4.2782626E-1,4.9765235E-1],"categories":[],"categories_nodes":[],"categories_segments":[],"categories_sizes":[],"default_left":[0,0,0,0,0,0,0,0,0,0,0,0,0,0,0,0,0,0,0,0,0,0,0,0,0,0,0,0,0,0,0,0,0,0,0,0,0,0,0,0,0,0,0,0,0,0,0,0,0,0,0,0,0,0,0,0,0,0,0,0,0,0,0,0,0],"id":4,"left_children":[1,3,5,7,9,11,13,15,17,19,21,23,-1,-1,-1,25,27,29,31,33,35,37,39,-1,-1,41,43,45,47,49,51,53,55,57,59,61,-1,-1,63,-1,-1,-1,-1,-1,-1,-1,-1,-1,-1,-1,-1,-1,-1,-1,-1,-1,-1,-1,-1,-1,-1,-1,-1,-1,-1],"loss_changes":[1.8135975E5,3.51595E4,1.9561953E4,6.8102607E3,7.351379E3,9.624961E2,7.5984375E2,9.023867E2,9.2865424E2,9.6145996E2,1.1022676E3,8.869141E1,0E0,0E0,0E0,1.0670117E2,9.598242E1,9.838864E1,1.3892542E2,1.2023926E2,1.3670752E2,8.039746E1,1.1402637E2,0E0,0E0,1.18359375E1,5.479004E0,5.447754E0,2.1016235E1,7.474945E0,1.8518988E1,2.1161362E1,1.3069214E1,1.2135254E1,1.584668E1,1.0126953E1,0E0,0E0,3.977539E0,0E0,0E0,0E0,0E0,0E0,0E0,0E0,0E0,0E0,0E0,0E0,0E0,0E0,0E0,0E0,0E0,0E0,0E0,0E0,0E0,0E0,0E0,0E0,0E0,0E0,0E0],"parents":[2147483647,0,0,1,1,2,2,3,3,4,4,5,5,6,6,7,7,8,8,9,9,10,10,11,11,15,15,16,16,17,17,18,18,19,19,20,20,21,21,22,22,25,25,26,26,27,27,28,28,29,29,30,30,31,31,32,32,33,33,34,34,35,35,38,38],"right_children":[2,4,6,8,10,12,14,16,18,20,22,24,-1,-1,-1,26,28,30,32,34,36,38,40,-1,-1,42,44,46,48,50,52,54,56,58,60,62,-1,-1,64,-1,-1,-1,-1,-1,-1,-1,-1,-1,-1,-1,-1,-1,-1,-1,-1,-1,-1,-1,-1,-1,-1,-1,-1,-1,-1],"split_conditions":[1.65E1,3.8E0,3.09E1,1.4E0,8.2E0,2.4E1,4.5E1,6E-1,2.4E0,5.6E0,1.14E1,1.97E1,1.4089166E0,1.9632299E0,2.439434E0,3E-1,9E-1,1.8E0,3.1E0,4.6E0,6.8E0,9.1E0,1.45E1,8.9596814E-1,1.106561E0,1E-1,5E-1,7E-1,1.1E0,1.6E0,2.1E0,2.7E0,3.4E0,4.1E0,5E0,6.1E0,2.986305E-1,3.6000904E-1,1.05E1,6.0057586E-1,7.6179373E-1,-1.2616627E-1,-1.1783048E-1,-1.06257476E-1,-9.694537E-2,-9.276084E-2,-8.315885E-2,-7.17504E-2,-5.7293285E-2,-4.3465737E-2,-3.199162E-2,-1.720695E-2,-3.463643E-4,1.6758658E-2,3.667358E-2,5.699129E-2,7.6696984E-2,9.624131E-2,1.20151244E-1,1.4504126E-1,1.7455009E-1,2.0486766E-1,2.3863418E-1,4.2782626E-1,4.9765235E-1],"split_indices":[13,13,13,13,13,13,13,13,13,13,13,13,0,0,0,13,13,13,13,13,13,13,13,0,0,13,13,13,13,13,13,13,13,13,13,13,0,0,13,0,0,0,0,0,0,0,0,0,0,0,0,0,0,0,0,0,0,0,0,0,0,0,0,0,0],"split_type":[0,0,0,0,0,0,0,0,0,0,0,0,0,0,0,0,0,0,0,0,0,0,0,0,0,0,0,0,0,0,0,0,0,0,0,0,0,0,0,0,0,0,0,0,0,0,0,0,0,0,0,0,0,0,0,0,0,0,0,0,0,0,0,0,0],"sum_hessian":[2.1534E4,2.1134E4,4E2,1.8654E4,2.48E3,2.11E2,1.89E2,1.3127E4,5.527E3,1.923E3,5.57E2,1.42E2,6.9E1,6.9E1,1.2E2,8.38E3,4.747E3,3.23E3,2.297E3,1.245E3,6.78E2,3.55E2,2.02E2,7E1,7.2E1,5.857E3,2.523E3,2.036E3,2.711E3,1.519E3,1.711E3,1.378E3,9.19E2,6.51E2,5.94E2,4.11E2,2.67E2,1.31E2,2.24E2,1.36E2,6.6E1,3.793E3,2.064E3,1.724E3,7.99E2,7.52E2,1.284E3,1.187E3,1.524E3,8.03E2,7.16E2,9.89E2,7.22E2,6.61E2,7.17E2,4.4E2,4.79E2,2.8E2,3.71E2,2.9E2,3.04E2,2.04E2,2.07E2,1.55E2,6.9E1],"tree_param":{"num_deleted":"0","num_feature":"32","num_nodes":"65","size_leaf_vector":"1"}},{"base_weights":[-2.145474E-3,-3.649465E-1,1.9502525E1,-7.865943E-1,3.0484374E0,1.3174543E1,2.626022E1,-1.1492774E0,1.2896375E-1,2.2202578E0,6.1944942E0,1.1673533E1,1.2890283E0,1.8000048E0,2.2463467E0,-1.3483665E0,-8.239808E-1,-1.7106171E-1,6.2775105E-1,1.6935697E0,3.1784236E0,5.332791E0,8.1835165E0,8.246235E-1,1.0174721E0,-1.438532E0,-1.2249458E0,-9.358713E-1,-6.335701E-1,-3.360213E-1,1.8370127E-2,4.44668E-1,9.051276E-1,1.4395002E0,2.057757E0,2.7773156E0,2.9564062E-1,3.8119948E-1,4.8938322E-1,5.9025216E-1,7.009354E-1,-1.16075516E-1,-1.1144949E-1,-1.0292689E-1,-9.210636E-2,-7.974378E-2,-6.603147E-2,-5.5516038E-2,-4.4940032E-2,-3.1786695E-2,-1.873251E-2,-5.593292E-3,1.03715705E-2,2.86903E-2,4.6964873E-2,6.27283E-2,8.149307E-2,1.0265165E-1,1.2714821E-1,1.519537E-1,1.785358E-1,2.0844719E-1,2.4229442E-1],"categories":[],"categories_nodes":[],"categories_segments":[],"categories_sizes":[],"default_left":[0,0,0,0,0,0,0,0,0,0,0,0,0,0,0,0,0,0,0,0,0,0,0,0,0,0,0,0,0,0,0,0,0,0,0,0,0,0,0,0,0,0,0,0,0,0,0,0,0,0,0,0,0,0,0,0,0,0,0,0,0,0,0],"id":5,"left_children":[1,3,5,7,9,11,13,15,17,19,21,23,-1,-1,-1,25,27,29,31,33,35,37,39,-1,-1,41,43,45,47,49,51,53,55,57,59,61,-1,-1,-1,-1,-1,-1,-1,-1,-1,-1,-1,-1,-1,-1,-1,-1,-1,-1,-1,-1,-1,-1,-1,-1,-1,-1,-1],"loss_changes":[1.530659E5,3.0565996E4,1.6541297E4,6.276802E3,6.06925E3,7.176758E2,6.627969E2,8.754961E2,8.028697E2,9.2774023E2,7.879863E2,6.638281E1,0E0,0E0,0E0,9.1416016E1,1.08822754E2,1.0472074E2,1.0179028E2,1.0735278E2,1.2493994E2,1.2210254E2,1.2587891E0,0E0,0E0,4.2578125E-1,1.4393066E1,2.0782959E1,7.7542725E0,1.1029648E1,1.5340496E1,1.459256E1,1.0013367E1,1.4261963E1,8.81543E0,7.645996E0,0E0,0E0,0E0,0E0,0E0,0E0,0E0,0E0,0E0,0E0,0E0,0E0,0E0,0E0,0E0,0E0,0E0,0E0,0E0,0E0,0E0,0E0,0E0,0E0,0E0,0E0,0E0],"parents":[2147483647,0,0,1,1,2,2,3,3,4,4,5,5,6,6,7,7,8,8,9,9,10,10,11,11,15,15,16,16,17,17,18,18,19,19,20,20,21,21,22,22,25,25,26,26,27,27,28,28,29,29,30,30,31,31,32,32,33,33,34,34,35,35],"right_children":[2,4,6,8,10,12,14,16,18,20,22,24,-1,-1,-1,26,28,30,32,34,36,38,40,-1,-1,42,44,46,48,50,52,54,56,58,60,62,-1,-1,-1,-1,-1,-1,-1,-1,-1,-1,-1,-1,-1,-1,-1,-1,-1,-1,-1,-1,-1,-1,-1,-1,-1,-1,-1],"split_conditions":[1.65E1,4E0,3.09E1,1.5E0,8.7E0,2.4E1,4.5E1,6E-1,2.6E0,5.9E0,1.29E1,1.97E1,1.2890283E0,1.8000048E0,2.2463467E0,2E-1,1.1E0,2E0,3.3E0,4.9E0,7.2E0,1.05E1,1.45E1,8.246235E-1,1.0174721E0,1E-1,4E-1,9E-1,1.3E0,1.8E0,2.3E0,3E0,3.6E0,4.4E0,5.4E0,6.6E0,2.9564062E-1,3.8119948E-1,4.8938322E-1,5.9025216E-1,7.009354E-1,-1.16075516E-1,-1.1144949E-1,-1.0292689E-1,-9.210636E-2,-7.974378E-2,-6.603147E-2,-5.5516038E-2,-4.4940032E-2,-3.1786695E-2,-1.873251E-2,-5.593292E-3,1.03715705E-2,2.86903E-2,4.6964873E-2,6.27283E-2,8.149307E-2,1.0265165E-1,1.2714821E-1,1.519537E-1,1.785358E-1,2.0844719E-1,2.4229442E-1],"split_indices":[13,13,13,13,13,13,13,13,13,13,13,13,0,0,0,13,13,13,13,13,13,13,13,0,0,13,13,13,13,13,13,13,13,13,13,13,0,0,0,0,0,0,0,0,0,0,0,0,0,0,0,0,0,0,0,0,0,0,0,0,0,0,0],"split_type":[0,0,0,0,0,0,0,0,0,0,0,0,0,0,0,0,0,0,0,0,0,0,0,0,0,0,0,0,0,0,0,0,0,0,0,0,0,0,0,0,0,0,0,0,0,0,0,0,0,0,0,0,0,0,0,0,0,0,0,0,0,0,0],"sum_hessian":[2.1629E4,2.1235E4,3.94E2,1.8901E4,2.334E3,2.05E2,1.89E2,1.3538E4,5.363E3,1.849E3,4.85E2,1.39E2,6.6E1,6.6E1,1.23E2,8.396E3,5.142E3,3.349E3,2.014E3,1.195E3,6.54E2,3.41E2,1.44E2,6.5E1,7.4E1,4.845E3,3.551E3,3.236E3,1.906E3,1.79E3,1.559E3,1.215E3,7.99E2,7.07E2,4.88E2,3.72E2,2.82E2,2.02E2,1.39E2,6.6E1,7.8E1,3.779E3,1.066E3,1.923E3,1.628E3,2.08E3,1.156E3,1.03E3,8.76E2,1.115E3,6.75E2,8.69E2,6.9E2,7.6E2,4.55E2,3.91E2,4.08E2,3.51E2,3.56E2,2.62E2,2.26E2,2.28E2,1.44E2],"tree_param":{"num_deleted":"0","num_feature":"32","num_nodes":"63","size_leaf_vector":"1"}},{"base_weights":[-4.4586994E-3,-3.436049E-1,1.795809E1,-7.440453E-1,2.6513999E0,1.2070903E1,2.4243898E1,-1.0741643E0,4.4174034E-2,1.878307E0,5.4251447E0,1.0653133E1,1.1848685E0,1.6823303E0,2.067951E0,-1.262813E0,-8.164367E-1,-2.4374175E-1,4.574457E-1,1.4404567E0,2.7375927E0,4.4355626E0,7.007595E0,7.544374E-1,9.418493E-1,-1.3239745E0,-1.1562396E0,-9.46414E-1,-6.7488164E-1,-3.756962E-1,-7.58195E-2,2.8901428E-1,7.127693E-1,1.1904229E0,1.761158E0,2.3883793E0,3.1489756E0,3.218399E-1,3.9901164E-1,5.12837E-1,6.441033E-1,-1.0679191E-1,-1.0253604E-1,-9.472269E-2,-8.7259E-2,-8.050967E-2,-7.012268E-2,-6.0717314E-2,-4.8568837E-2,-3.6856778E-2,-2.4632387E-2,-1.229228E-2,-3.799472E-4,1.4029688E-2,3.1039454E-2,5.0493006E-2,6.777293E-2,8.348595E-2,1.0595728E-1,1.290531E-1,1.5512018E-1,1.7986959E-1,2.0776741E-1,2.3364246E-1,2.7042407E-1],"categories":[],"categories_nodes":[],"categories_segments":[],"categories_sizes":[],"default_left":[0,0,0,0,0,0,0,0,0,0,0,0,0,0,0,0,0,0,0,0,0,0,0,0,0,0,0,0,0,0,0,0,0,0,0,0,0,0,0,0,0,0,0,0,0,0,0,0,0,0,0,0,0,0,0,0,0,0,0,0,0,0,0,0,0],"id":6,"left_children":[1,3,5,7,9,11,13,15,17,19,21,23,-1,-1,-1,25,27,29,31,33,35,37,39,-1,-1,41,43,45,47,49,51,53,55,57,59,61,63,-1,-1,-1,-1,-1,-1,-1,-1,-1,-1,-1,-1,-1,-1,-1,-1,-1,-1,-1,-1,-1,-1,-1,-1,-1,-1,-1,-1],"loss_changes":[1.3051182E5,2.5219902E4,1.4394992E4,4.826454E3,5.3070977E3,6.4378906E2,4.3753125E2,6.343711E2,6.517081E2,7.259175E2,8.1339453E2,7.856445E1,0E0,0E0,0E0,4.7407227E1,1.0090845E2,7.145268E1,9.641101E1,1.0088818E2,8.5879395E1,5.5336426E1,7.532617E1,0E0,0E0,2.3828125E-1,3.5058594E0,1.0991943E1,1.4503784E1,1.0195358E1,7.849471E0,1.5139526E1,9.111298E0,1.2691284E1,1.1308594E1,4.1376953E0,5.192627E0,0E0,0E0,0E0,0E0,0E0,0E0,0E0,0E0,0E0,0E0,0E0,0E0,0E0,0E0,0E0,0E0,0E0,0E0,0E0,0E0,0E0,0E0,0E0,0E0,0E0,0E0,0E0,0E0],"parents":[2147483647,0,0,1,1,2,2,3,3,4,4,5,5,6,6,7,7,8,8,9,9,10,10,11,11,15,15,16,16,17,17,18,18,19,19,20,20,21,21,22,22,25,25,26,26,27,27,28,28,29,29,30,30,31,31,32,32,33,33,34,34,35,35,36,36],"right_children":[2,4,6,8,10,12,14,16,18,20,22,24,-1,-1,-1,26,28,30,32,34,36,38,40,-1,-1,42,44,46,48,50,52,54,56,58,60,62,64,-1,-1,-1,-1,-1,-1,-1,-1,-1,-1,-1,-1,-1,-1,-1,-1,-1,-1,-1,-1,-1,-1,-1,-1,-1,-1,-1,-1],"split_conditions":[1.65E1,3.8E0,3.09E1,1.4E0,8.2E0,2.4E1,4.5E1,5E-1,2.4E0,5.7E0,1.14E1,1.97E1,1.1848685E0,1.6823303E0,2.067951E0,2E-1,9E-1,1.9E0,3.1E0,4.7E0,6.8E0,9.7E0,1.45E1,7.544374E-1,9.418493E-1,1E-1,4E-1,7E-1,1.1E0,1.6E0,2.1E0,2.7E0,3.5E0,4.2E0,5.2E0,6.3E0,7.5E0,3.218399E-1,3.9901164E-1,5.12837E-1,6.441033E-1,-1.0679191E-1,-1.0253604E-1,-9.472269E-2,-8.7259E-2,-8.050967E-2,-7.012268E-2,-6.0717314E-2,-4.8568837E-2,-3.6856778E-2,-2.4632387E-2,-1.229228E-2,-3.799472E-4,1.4029688E-2,3.1039454E-2,5.0493006E-2,6.777293E-2,8.348595E-2,1.0595728E-1,1.290531E-1,1.5512018E-1,1.7986959E-1,2.0776741E-1,2.3364246E-1,2.7042407E-1],"split_indices":[13,13,13,13,13,13,13,13,13,13,13,13,0,0,0,13,13,13,13,13,13,13,13,0,0,13,13,13,13,13,13,13,13,13,13,13,13,0,0,0,0,0,0,0,0,0,0,0,0,0,0,0,0,0,0,0,0,0,0,0,0,0,0,0,0],"split_type":[0,0,0,0,0,0,0,0,0,0,0,0,0,0,0,0,0,0,0,0,0,0,0,0,0,0,0,0,0,0,0,0,0,0,0,0,0,0,0,0,0,0,0,0,0,0,0,0,0,0,0,0,0,0,0,0,0,0,0,0,0,0,0,0,0],"sum_hessian":[2.1422E4,2.1026E4,3.96E2,1.8547E4,2.479E3,2.06E2,1.9E2,1.3072E4,5.475E3,1.94E3,5.39E2,1.39E2,6.7E1,6.8E1,1.22E2,7.545E3,5.527E3,3.227E3,2.248E3,1.287E3,6.53E2,3.34E2,2.05E2,7.1E1,6.8E1,4.786E3,2.759E3,2.878E3,2.649E3,1.806E3,1.421E3,1.356E3,8.92E2,7.26E2,5.61E2,3.57E2,2.96E2,1.96E2,1.38E2,1.35E2,7E1,3.777E3,1.009E3,1.924E3,8.35E2,1.541E3,1.337E3,1.177E3,1.472E3,7.98E2,1.008E3,6.77E2,7.44E2,6.33E2,7.23E2,5.59E2,3.33E2,3.51E2,3.75E2,3.12E2,2.49E2,2.21E2,1.36E2,1.56E2,1.4E2],"tree_param":{"num_deleted":"0","num_feature":"32","num_nodes":"65","size_leaf_vector":"1"}},{"base_weights":[2.6560595E-4,-3.0833638E-1,1.6753088E1,-6.833216E-1,2.4381392E0,1.1130796E1,2.2404583E1,-9.7359365E-1,8.2685664E-2,1.7368793E0,4.933389E0,9.922887E0,1.0977446E0,1.5638392E0,1.9041107E0,-1.1222467E0,-6.627505E-1,-1.6626008E-1,4.5862058E-1,1.3288007E0,2.5213902E0,4.065167E0,6.388305E0,6.9878966E-1,8.6647767E-1,-1.2009134E0,-9.8239535E-1,-7.5641763E-1,-5.377037E-1,-2.833975E-1,-8.1135435E-3,3.2113418E-1,6.9461507E-1,1.1032099E0,1.6197916E0,1.7197841E-1,2.848229E0,2.797643E-1,3.533082E-1,4.682525E-1,5.909437E-1,-9.743251E-2,-8.9323185E-2,-8.25827E-2,-7.410436E-2,-6.452605E-2,-5.5883974E-2,-4.7195796E-2,-3.7893288E-2,-2.9143592E-2,-1.7930424E-2,-4.765438E-3,6.8905656E-3,1.7192455E-2,3.3065405E-2,4.9319156E-2,6.24005E-2,7.7201344E-2,9.772106E-2,1.1865155E-1,1.4269345E-1,2.0599654E-1,2.4113847E-1],"categories":[],"categories_nodes":[],"categories_segments":[],"categories_sizes":[],"default_left":[0,0,0,0,0,0,0,0,0,0,0,0,0,0,0,0,0,0,0,0,0,0,0,0,0,0,0,0,0,0,0,0,0,0,0,0,0,0,0,0,0,0,0,0,0,0,0,0,0,0,0,0,0,0,0,0,0,0,0,0,0,0,0],"id":7,"left_children":[1,3,5,7,9,11,13,15,17,19,21,23,-1,-1,-1,25,27,29,31,33,35,37,39,-1,-1,41,43,45,47,49,51,53,55,57,59,-1,61,-1,-1,-1,-1,-1,-1,-1,-1,-1,-1,-1,-1,-1,-1,-1,-1,-1,-1,-1,-1,-1,-1,-1,-1,-1,-1],"loss_changes":[1.1118668E5,2.174963E4,1.2107492E4,4.131664E3,4.4300557E3,4.780254E2,3.0048438E2,6.2172754E2,4.7805634E2,6.307866E2,6.7531934E2,5.2313477E1,0E0,0E0,0E0,9.887109E1,5.055481E1,5.6895485E1,6.570303E1,8.367285E1,7.561426E1,5.3793945E1,6.551465E1,0E0,0E0,6.7626953E0,8.045898E0,6.5163574E0,5.877075E0,8.321915E0,6.3502793E0,1.2461105E1,4.369568E0,1.0684265E1,9.747314E0,0E0,7.8745117E0,0E0,0E0,0E0,0E0,0E0,0E0,0E0,0E0,0E0,0E0,0E0,0E0,0E0,0E0,0E0,0E0,0E0,0E0,0E0,0E0,0E0,0E0,0E0,0E0,0E0,0E0],"parents":[2147483647,0,0,1,1,2,2,3,3,4,4,5,5,6,6,7,7,8,8,9,9,10,10,11,11,15,15,16,16,17,17,18,18,19,19,20,20,21,21,22,22,25,25,26,26,27,27,28,28,29,29,30,30,31,31,32,32,33,33,34,34,36,36],"right_children":[2,4,6,8,10,12,14,16,18,20,22,24,-1,-1,-1,26,28,30,32,34,36,38,40,-1,-1,42,44,46,48,50,52,54,56,58,60,-1,62,-1,-1,-1,-1,-1,-1,-1,-1,-1,-1,-1,-1,-1,-1,-1,-1,-1,-1,-1,-1,-1,-1,-1,-1,-1,-1],"split_conditions":[1.65E1,3.8E0,3.09E1,1.5E0,8.2E0,2.4E1,4.5E1,7E-1,2.5E0,5.7E0,1.14E1,1.97E1,1.0977446E0,1.5638392E0,1.9041107E0,3E-1,1.1E0,2E0,3.2E0,4.7E0,6.6E0,9.1E0,1.45E1,6.9878966E-1,8.6647767E-1,2E-1,5E-1,9E-1,1.3E0,1.7E0,2.3E0,2.8E0,3.5E0,4.2E0,5.2E0,1.7197841E-1,7.2E0,2.797643E-1,3.533082E-1,4.682525E-1,5.909437E-1,-9.743251E-2,-8.9323185E-2,-8.25827E-2,-7.410436E-2,-6.452605E-2,-5.5883974E-2,-4.7195796E-2,-3.7893288E-2,-2.9143592E-2,-1.7930424E-2,-4.765438E-3,6.8905656E-3,1.7192455E-2,3.3065405E-2,4.9319156E-2,6.24005E-2,7.7201344E-2,9.772106E-2,1.1865155E-1,1.4269345E-1,2.0599654E-1,2.4113847E-1],"split_indices":[13,13,13,13,13,13,13,13,13,13,13,13,0,0,0,13,13,13,13,13,13,13,13,0,0,13,13,13,13,13,13,13,13,13,13,0,13,0,0,0,0,0,0,0,0,0,0,0,0,0,0,0,0,0,0,0,0,0,0,0,0,0,0],"split_type":[0,0,0,0,0,0,0,0,0,0,0,0,0,0,0,0,0,0,0,0,0,0,0,0,0,0,0,0,0,0,0,0,0,0,0,0,0,0,0,0,0,0,0,0,0,0,0,0,0,0,0,0,0,0,0,0,0,0,0,0,0,0,0],"sum_hessian":[2.1504E4,2.1116E4,3.88E2,1.858E4,2.536E3,1.96E2,1.92E2,1.3474E4,5.106E3,1.981E3,5.55E2,1.37E2,5.9E1,6.8E1,1.24E2,9.113E3,4.361E3,3.072E3,2.034E3,1.305E3,6.76E2,3.5E2,2.05E2,6.4E1,7.3E1,5.827E3,3.286E3,2.49E3,1.871E3,1.764E3,1.308E3,1.287E3,7.47E2,7.38E2,5.67E2,3.2E2,3.56E2,1.38E2,2.12E2,1.38E2,6.7E1,4.838E3,9.89E2,1.729E3,1.557E3,1.326E3,1.164E3,1.025E3,8.46E2,7.43E2,1.021E3,8.47E2,4.61E2,6E2,6.87E2,3.95E2,3.52E2,3.45E2,3.93E2,3.15E2,2.52E2,1.41E2,2.15E2],"tree_param":{"num_deleted":"0","num_feature":"32","num_nodes":"63","size_leaf_vector":"1"}},{"base_weights":[4.3464825E-3,-2.8365013E-1,1.5243143E1,-6.121295E-1,2.3850048E0,1.036133E1,2.061203E1,-8.953951E-1,1.027131E-1,1.7302164E0,4.806131E0,9.081591E0,1.0289545E0,1.4433279E0,1.752531E0,-1.0325743E0,-6.0703593E-1,-1.3478342E-1,4.8776874E-1,1.352796E0,2.5468564E0,4.1450596E0,5.1373357E-1,6.503283E-1,7.945271E-1,-1.104718E0,-9.0432286E-1,-6.949311E-1,-4.9360287E-1,-2.6287284E-1,1.2508713E-2,3.4496823E-1,7.05138E-1,1.1408459E0,1.6720653E0,2.2428267E0,2.876923E0,2.9390723E-1,3.8035804E-1,-9.045842E-2,-8.44541E-2,-7.5999185E-2,-6.8134636E-2,-5.9345074E-2,-5.1391777E-2,-4.3420233E-2,-3.4881953E-2,-2.49568E-2,-1.435103E-2,-4.405075E-3,8.062198E-3,2.0322582E-2,3.4674753E-2,4.914706E-2,6.335692E-2,8.121685E-2,1.02553315E-1,1.20323084E-1,1.4226595E-1,1.682214E-1,1.9004585E-1,2.1267962E-1,2.4437408E-1],"categories":[],"categories_nodes":[],"categories_segments":[],"categories_sizes":[],"default_left":[0,0,0,0,0,0,0,0,0,0,0,0,0,0,0,0,0,0,0,0,0,0,0,0,0,0,0,0,0,0,0,0,0,0,0,0,0,0,0,0,0,0,0,0,0,0,0,0,0,0,0,0,0,0,0,0,0,0,0,0,0,0,0],"id":8,"left_children":[1,3,5,7,9,11,13,15,17,19,21,23,-1,-1,-1,25,27,29,31,33,35,37,-1,-1,-1,39,41,43,45,47,49,51,53,55,57,59,61,-1,-1,-1,-1,-1,-1,-1,-1,-1,-1,-1,-1,-1,-1,-1,-1,-1,-1,-1,-1,-1,-1,-1,-1,-1,-1],"loss_changes":[9.440723E4,1.850802E4,1.0241078E4,3.8067866E3,3.6594717E3,5.5622266E2,2.2971094E2,5.3180273E2,4.8807486E2,5.5804395E2,4.977754E2,3.3234375E1,0E0,0E0,0E0,8.320117E1,4.2838745E1,6.230685E1,6.2850098E1,8.2329834E1,5.073706E1,8.277344E1,0E0,0E0,0E0,6.0288086E0,6.9196777E0,5.404419E0,5.0424194E0,7.1320496E0,9.171609E0,9.724243E0,5.7269897E0,1.18324585E1,5.8529053E0,2.088623E-1,1.8684082E0,0E0,0E0,0E0,0E0,0E0,0E0,0E0,0E0,0E0,0E0,0E0,0E0,0E0,0E0,0E0,0E0,0E0,0E0,0E0,0E0,0E0,0E0,0E0,0E0,0E0,0E0],"parents":[2147483647,0,0,1,1,2,2,3,3,4,4,5,5,6,6,7,7,8,8,9,9,10,10,11,11,15,15,16,16,17,17,18,18,19,19,20,20,21,21,25,25,26,26,27,27,28,28,29,29,30,30,31,31,32,32,33,33,34,34,35,35,36,36],"right_children":[2,4,6,8,10,12,14,16,18,20,22,24,-1,-1,-1,26,28,30,32,34,36,38,-1,-1,-1,40,42,44,46,48,50,52,54,56,58,60,62,-1,-1,-1,-1,-1,-1,-1,-1,-1,-1,-1,-1,-1,-1,-1,-1,-1,-1,-1,-1,-1,-1,-1,-1,-1,-1],"split_conditions":[1.65E1,4E0,3.09E1,1.5E0,8.7E0,2.4E1,4.5E1,7E-1,2.6E0,6.1E0,1.29E1,1.97E1,1.0289545E0,1.4433279E0,1.752531E0,3E-1,1.1E0,2E0,3.3E0,5E0,7.2E0,1.05E1,5.1373357E-1,6.503283E-1,7.945271E-1,1E-1,5E-1,9E-1,1.3E0,1.8E0,2.3E0,2.9E0,3.6E0,4.5E0,5.4E0,6.6E0,7.8E0,2.9390723E-1,3.8035804E-1,-9.045842E-2,-8.44541E-2,-7.5999185E-2,-6.8134636E-2,-5.9345074E-2,-5.1391777E-2,-4.3420233E-2,-3.4881953E-2,-2.49568E-2,-1.435103E-2,-4.405075E-3,8.062198E-3,2.0322582E-2,3.4674753E-2,4.914706E-2,6.335692E-2,8.121685E-2,1.02553315E-1,1.20323084E-1,1.4226595E-1,1.682214E-1,1.9004585E-1,2.1267962E-1,2.4437408E-1],"split_indices":[13,13,13,13,13,13,13,13,13,13,13,13,0,0,0,13,13,13,13,13,13,13,0,0,0,13,13,13,13,13,13,13,13,13,13,13,13,0,0,0,0,0,0,0,0,0,0,0,0,0,0,0,0,0,0,0,0,0,0,0,0,0,0],"split_type":[0,0,0,0,0,0,0,0,0,0,0,0,0,0,0,0,0,0,0,0,0,0,0,0,0,0,0,0,0,0,0,0,0,0,0,0,0,0,0,0,0,0,0,0,0,0,0,0,0,0,0,0,0,0,0,0,0,0,0,0,0,0,0],"sum_hessian":[2.1509E4,2.1111E4,3.98E2,1.8798E4,2.313E3,2.1E2,1.88E2,1.3463E4,5.335E3,1.822E3,4.91E2,1.42E2,6.8E1,6.8E1,1.2E2,9.121E3,4.342E3,3.3E3,2.035E3,1.248E3,5.74E2,3.51E2,1.4E2,7.2E1,7E1,5.832E3,3.289E3,2.443E3,1.899E3,1.765E3,1.535E3,1.23E3,8.05E2,7.53E2,4.95E2,3.03E2,2.71E2,2.02E2,1.49E2,3.795E3,2.037E3,1.751E3,1.538E3,1.283E3,1.16E3,1.019E3,8.8E2,1.109E3,6.56E2,8.69E2,6.66E2,6.09E2,6.21E2,3.98E2,4.07E2,4.03E2,3.5E2,1.98E2,2.97E2,1.56E2,1.47E2,1.29E2,1.42E2],"tree_param":{"num_deleted":"0","num_feature":"32","num_nodes":"63","size_leaf_vector":"1"}},{"base_weights":[7.411124E-3,-2.657068E-1,1.4089571E1,-5.7502645E-1,2.1261778E0,9.595486E0,1.8829756E1,-8.2289845E-1,8.006319E-2,1.542708E0,4.4150286E0,8.459549E0,9.3846405E-1,1.3042616E0,1.6139196E0,-9.666673E-1,-5.902241E-1,-1.251002E-1,4.3185997E-1,1.1822664E0,2.282153E0,3.8083944E0,4.7110683E-1,5.938418E-1,7.408563E-1,-1.0311235E0,-8.7762964E-1,-6.905598E-1,-4.8196772E-1,-2.3938209E-1,1.0145151E-2,2.961043E-1,6.0385233E-1,9.7523564E-1,1.4436132E0,2.0129025E0,2.6450338E0,2.7152812E-1,3.501439E-1,-8.322356E-2,-7.9809554E-2,-7.382046E-2,-6.5904476E-2,-5.8847822E-2,-5.0969668E-2,-4.3890238E-2,-3.4014538E-2,-2.4786463E-2,-1.5013412E-2,-4.2511295E-3,7.3620803E-3,1.8674714E-2,3.0073732E-2,4.357993E-2,5.652103E-2,6.882875E-2,8.6873494E-2,1.04947686E-1,1.2567109E-1,1.4345138E-1,1.6930787E-1,1.9515578E-1,2.254863E-1],"categories":[],"categories_nodes":[],"categories_segments":[],"categories_sizes":[],"default_left":[0,0,0,0,0,0,0,0,0,0,0,0,0,0,0,0,0,0,0,0,0,0,0,0,0,0,0,0,0,0,0,0,0,0,0,0,0,0,0,0,0,0,0,0,0,0,0,0,0,0,0,0,0,0,0,0,0,0,0,0,0,0,0],"id":9,"left_children":[1,3,5,7,9,11,13,15,17,19,21,23,-1,-1,-1,25,27,29,31,33,35,37,-1,-1,-1,39,41,43,45,47,49,51,53,55,57,59,61,-1,-1,-1,-1,-1,-1,-1,-1,-1,-1,-1,-1,-1,-1,-1,-1,-1,-1,-1,-1,-1,-1,-1,-1,-1,-1],"loss_changes":[8.268068E4,1.5603174E4,8.52932E3,3.0323936E3,3.2177666E3,4.1296875E2,3.3989844E2,4.5247168E2,3.7013016E2,5.1028613E2,4.1469238E2,4.750879E1,0E0,0E0,0E0,4.695117E1,5.578247E1,5.0087643E1,4.383734E1,6.8526855E1,5.5764893E1,6.67876E1,0E0,0E0,0E0,2.4902344E-1,7.6220703E0,5.853882E0,9.110046E0,6.289589E0,7.6985254E0,5.1436234E0,4.538208E0,8.114746E0,7.227051E0,4.1343994E0,2.0532227E0,0E0,0E0,0E0,0E0,0E0,0E0,0E0,0E0,0E0,0E0,0E0,0E0,0E0,0E0,0E0,0E0,0E0,0E0,0E0,0E0,0E0,0E0,0E0,0E0,0E0,0E0],"parents":[2147483647,0,0,1,1,2,2,3,3,4,4,5,5,6,6,7,7,8,8,9,9,10,10,11,11,15,15,16,16,17,17,18,18,19,19,20,20,21,21,25,25,26,26,27,27,28,28,29,29,30,30,31,31,32,32,33,33,34,34,35,35,36,36],"right_children":[2,4,6,8,10,12,14,16,18,20,22,24,-1,-1,-1,26,28,30,32,34,36,38,-1,-1,-1,40,42,44,46,48,50,52,54,56,58,60,62,-1,-1,-1,-1,-1,-1,-1,-1,-1,-1,-1,-1,-1,-1,-1,-1,-1,-1,-1,-1,-1,-1,-1,-1,-1,-1],"split_conditions":[1.65E1,3.9E0,3.09E1,1.5E0,8.7E0,2.4E1,4.5E1,6E-1,2.6E0,5.9E0,1.29E1,1.97E1,9.3846405E-1,1.3042616E0,1.6139196E0,2E-1,1E0,2E0,3.2E0,4.8E0,7.2E0,1.05E1,4.7110683E-1,5.938418E-1,7.408563E-1,1E-1,4E-1,8E-1,1.2E0,1.7E0,2.3E0,2.9E0,3.6E0,4.3E0,5.3E0,6.3E0,7.8E0,2.7152812E-1,3.501439E-1,-8.322356E-2,-7.9809554E-2,-7.382046E-2,-6.5904476E-2,-5.8847822E-2,-5.0969668E-2,-4.3890238E-2,-3.4014538E-2,-2.4786463E-2,-1.5013412E-2,-4.2511295E-3,7.3620803E-3,1.8674714E-2,3.0073732E-2,4.357993E-2,5.652103E-2,6.882875E-2,8.6873494E-2,1.04947686E-1,1.2567109E-1,1.4345138E-1,1.6930787E-1,1.9515578E-1,2.254863E-1],"split_indices":[13,13,13,13,13,13,13,13,13,13,13,13,0,0,0,13,13,13,13,13,13,13,0,0,0,13,13,13,13,13,13,13,13,13,13,13,13,0,0,0,0,0,0,0,0,0,0,0,0,0,0,0,0,0,0,0,0,0,0,0,0,0,0],"split_type":[0,0,0,0,0,0,0,0,0,0,0,0,0,0,0,0,0,0,0,0,0,0,0,0,0,0,0,0,0,0,0,0,0,0,0,0,0,0,0,0,0,0,0,0,0,0,0,0,0,0,0,0,0,0,0,0,0,0,0,0,0,0,0],"sum_hessian":[2.1495E4,2.1087E4,4.08E2,1.8673E4,2.414E3,2.11E2,1.97E2,1.3547E4,5.126E3,1.925E3,4.89E2,1.41E2,7E1,7.3E1,1.24E2,8.371E3,5.176E3,3.238E3,1.888E3,1.296E3,6.29E2,3.49E2,1.4E2,6.6E1,7.5E1,4.849E3,3.522E3,2.683E3,2.493E3,1.755E3,1.483E3,1.057E3,8.31E2,7.26E2,5.7E2,3.65E2,2.64E2,2.06E2,1.43E2,3.781E3,1.068E3,1.906E3,1.616E3,1.448E3,1.235E3,1.142E3,1.351E3,7.4E2,1.015E3,8.36E2,6.47E2,5.95E2,4.62E2,5.32E2,2.99E2,3.61E2,3.65E2,2.86E2,2.84E2,1.23E2,2.42E2,1.28E2,1.36E2],"tree_param":{"num_deleted":"0","num_feature":"32","num_nodes":"63","size_leaf_vector":"1"}},{"base_weights":[4.522803E-3,-2.40012E-1,1.2954021E1,-5.367646E-1,1.846378E0,8.890384E0,1.7378603E1,-7.846232E-1,-1.0188484E-2,1.2681624E0,3.731355E0,7.6829967E0,8.790299E-1,1.1897651E0,1.4857417E0,-9.0553385E-1,-6.0281444E-1,-1.9900085E-1,3.137095E-1,9.548369E-1,1.8000696E0,3.0840874E0,5.0166273E0,5.476646E-1,6.716205E-1,-9.4888765E-1,-8.2820475E-1,-6.782568E-1,-5.0598305E-1,-3.0847165E-1,-7.627571E-2,1.8661329E-1,4.6890035E-1,7.924248E-1,1.1580714E0,1.5361383E0,2.0595908E0,2.119537E-1,3.4637656E0,3.669602E-1,4.7065577E-1,-7.65674E-2,-7.3428035E-2,-6.7885E-2,-6.2346496E-2,-5.771331E-2,-5.023355E-2,-4.3577977E-2,-3.6791228E-2,-2.789673E-2,-1.9291775E-2,-1.0522804E-2,-4.3966094E-5,1.0047811E-2,2.0525377E-2,3.1156037E-2,4.3148816E-2,5.6974754E-2,7.13381E-2,8.54333E-2,1.0063911E-1,1.13936946E-1,1.287934E-1,1.4924355E-1,1.7425272E-1,2.4824874E-1,2.8974798E-1],"categories":[],"categories_nodes":[],"categories_segments":[],"categories_sizes":[],"default_left":[0,0,0,0,0,0,0,0,0,0,0,0,0,0,0,0,0,0,0,0,0,0,0,0,0,0,0,0,0,0,0,0,0,0,0,0,0,0,0,0,0,0,0,0,0,0,0,0,0,0,0,0,0,0,0,0,0,0,0,0,0,0,0,0,0,0,0],"id":10,"left_children":[1,3,5,7,9,11,13,15,17,19,21,23,-1,-1,-1,25,27,29,31,33,35,37,39,-1,-1,41,43,45,47,49,51,53,55,57,59,61,63,-1,65,-1,-1,-1,-1,-1,-1,-1,-1,-1,-1,-1,-1,-1,-1,-1,-1,-1,-1,-1,-1,-1,-1,-1,-1,-1,-1,-1,-1],"loss_changes":[6.782985E4,1.3017076E4,6.9808984E3,2.4021973E3,2.8481865E3,4.4300195E2,2.8569922E2,2.7441553E2,3.6038177E2,3.3215918E2,4.9451465E2,2.2100098E1,0E0,0E0,0E0,2.4228027E1,3.6078857E1,4.9955826E1,4.264839E1,4.060913E1,4.7300537E1,5.8040283E1,4.7916016E1,0E0,0E0,1.5771484E-1,1.8702393E0,5.5126953E0,3.5686646E0,5.1854553E0,7.3390207E0,5.030155E0,5.160736E0,4.829895E0,3.4594727E0,4.755249E-1,4.0682373E0,0E0,4.0356445E-1,0E0,0E0,0E0,0E0,0E0,0E0,0E0,0E0,0E0,0E0,0E0,0E0,0E0,0E0,0E0,0E0,0E0,0E0,0E0,0E0,0E0,0E0,0E0,0E0,0E0,0E0,0E0,0E0],"parents":[2147483647,0,0,1,1,2,2,3,3,4,4,5,5,6,6,7,7,8,8,9,9,10,10,11,11,15,15,16,16,17,17,18,18,19,19,20,20,21,21,22,22,25,25,26,26,27,27,28,28,29,29,30,30,31,31,32,32,33,33,34,34,35,35,36,36,38,38],"right_children":[2,4,6,8,10,12,14,16,18,20,22,24,-1,-1,-1,26,28,30,32,34,36,38,40,-1,-1,42,44,46,48,50,52,54,56,58,60,62,64,-1,66,-1,-1,-1,-1,-1,-1,-1,-1,-1,-1,-1,-1,-1,-1,-1,-1,-1,-1,-1,-1,-1,-1,-1,-1,-1,-1,-1,-1],"split_conditions":[1.65E1,3.7E0,3.09E1,1.3E0,7.8E0,2.4E1,4.5E1,5E-1,2.4E0,5.4E0,1.14E1,1.97E1,8.790299E-1,1.1897651E0,1.4857417E0,2E-1,9E-1,1.8E0,3E0,4.5E0,6.3E0,9.1E0,1.45E1,5.476646E-1,6.716205E-1,1E-1,4E-1,7E-1,1.1E0,1.6E0,2.1E0,2.7E0,3.3E0,4.1E0,4.9E0,5.7E0,6.8E0,2.119537E-1,9.7E0,3.669602E-1,4.7065577E-1,-7.65674E-2,-7.3428035E-2,-6.7885E-2,-6.2346496E-2,-5.771331E-2,-5.023355E-2,-4.3577977E-2,-3.6791228E-2,-2.789673E-2,-1.9291775E-2,-1.0522804E-2,-4.3966094E-5,1.0047811E-2,2.0525377E-2,3.1156037E-2,4.3148816E-2,5.6974754E-2,7.13381E-2,8.54333E-2,1.0063911E-1,1.13936946E-1,1.287934E-1,1.4924355E-1,1.7425272E-1,2.4824874E-1,2.8974798E-1],"split_indices":[13,13,13,13,13,13,13,13,13,13,13,13,0,0,0,13,13,13,13,13,13,13,13,0,0,13,13,13,13,13,13,13,13,13,13,13,13,0,13,0,0,0,0,0,0,0,0,0,0,0,0,0,0,0,0,0,0,0,0,0,0,0,0,0,0,0,0],"split_type":[0,0,0,0,0,0,0,0,0,0,0,0,0,0,0,0,0,0,0,0,0,0,0,0,0,0,0,0,0,0,0,0,0,0,0,0,0,0,0,0,0,0,0,0,0,0,0,0,0,0,0,0,0,0,0,0,0,0,0,0,0,0,0,0,0,0,0],"sum_hessian":[2.1418E4,2.1022E4,3.96E2,1.8405E4,2.617E3,2.08E2,1.88E2,1.2514E4,5.891E3,2.004E3,6.13E2,1.35E2,7.3E1,6.5E1,1.23E2,7.513E3,5.001E3,3.722E3,2.169E3,1.263E3,7.41E2,4.1E2,2.03E2,6.7E1,6.8E1,4.806E3,2.707E3,2.807E3,2.194E3,1.966E3,1.756E3,1.194E3,9.75E2,7.05E2,5.58E2,3.71E2,3.7E2,1.95E2,2.15E2,1.4E2,6.3E1,3.775E3,1.031E3,1.898E3,8.09E2,1.503E3,1.304E3,1.185E3,1.009E3,1.227E3,7.39E2,1.014E3,7.42E2,6.4E2,5.54E2,4.62E2,5.13E2,3.95E2,3.1E2,3E2,2.58E2,1.56E2,2.15E2,1.47E2,2.23E2,7.2E1,1.43E2],"tree_param":{"num_deleted":"0","num_feature":"32","num_nodes":"67","size_leaf_vector":"1"}},{"base_weights":[-1.6644872E-3,-2.2585432E-1,1.190336E1,-4.9447381E-1,1.6858402E0,8.111523E0,1.584912E1,-7.217344E-1,-1.0504136E-2,1.1656027E0,3.4327238E0,7.114506E0,8.10609E-1,1.0892735E0,1.3674681E0,-8.3276856E-1,-5.5556077E-1,-1.8546721E-1,2.8796846E-1,8.76078E-1,1.660717E0,2.8156223E0,4.633835E0,5.0483954E-1,6.1959743E-1,-8.728849E-1,-7.6224226E-1,-6.2403125E-1,-4.6472275E-1,-2.8567988E-1,-6.95779E-2,1.7175788E-1,4.3054488E-1,7.1424705E-1,1.0447313E0,1.4157424E0,1.9015728E0,1.9594593E-1,2.5366715E-1,3.3706304E-1,4.323419E-1,-7.0443444E-2,-6.756032E-2,-6.411194E-2,-5.9088882E-2,-5.3094033E-2,-4.6208214E-2,-4.0018864E-2,-3.3860255E-2,-2.7124975E-2,-1.9415472E-2,-9.687019E-3,-5.722939E-5,9.265801E-3,1.8874185E-2,3.0233473E-2,4.1490518E-2,5.254129E-2,6.412569E-2,7.714904E-2,9.246682E-2,1.0505868E-1,1.1848266E-1,1.436684E-1,1.6626889E-1],"categories":[],"categories_nodes":[],"categories_segments":[],"categories_sizes":[],"default_left":[0,0,0,0,0,0,0,0,0,0,0,0,0,0,0,0,0,0,0,0,0,0,0,0,0,0,0,0,0,0,0,0,0,0,0,0,0,0,0,0,0,0,0,0,0,0,0,0,0,0,0,0,0,0,0,0,0,0,0,0,0,0,0,0,0],"id":11,"left_children":[1,3,5,7,9,11,13,15,17,19,21,23,-1,-1,-1,25,27,29,31,33,35,37,39,-1,-1,41,43,45,47,49,51,53,55,57,59,61,63,-1,-1,-1,-1,-1,-1,-1,-1,-1,-1,-1,-1,-1,-1,-1,-1,-1,-1,-1,-1,-1,-1,-1,-1,-1,-1,-1,-1],"loss_changes":[5.7181863E4,1.0799493E4,5.793875E3,2.0279741E3,2.3502246E3,3.372578E2,3.0045703E2,2.3090283E2,3.0778555E2,2.8470044E2,4.2648584E2,2.0685547E1,0E0,0E0,0E0,2.0443848E1,3.0880127E1,4.3100655E1,3.595285E1,3.3549377E1,4.0402832E1,4.306714E1,4.1069336E1,0E0,0E0,1.237793E-1,1.7849121E0,4.76416E0,2.8857727E0,4.4306183E0,6.1064777E0,4.2518883E0,4.243408E0,2.5803223E0,4.173767E0,2.4536133E-1,2.7578125E0,0E0,0E0,0E0,0E0,0E0,0E0,0E0,0E0,0E0,0E0,0E0,0E0,0E0,0E0,0E0,0E0,0E0,0E0,0E0,0E0,0E0,0E0,0E0,0E0,0E0,0E0,0E0,0E0],"parents":[2147483647,0,0,1,1,2,2,3,3,4,4,5,5,6,6,7,7,8,8,9,9,10,10,11,11,15,15,16,16,17,17,18,18,19,19,20,20,21,21,22,22,25,25,26,26,27,27,28,28,29,29,30,30,31,31,32,32,33,33,34,34,35,35,36,36],"right_children":[2,4,6,8,10,12,14,16,18,20,22,24,-1,-1,-1,26,28,30,32,34,36,38,40,-1,-1,42,44,46,48,50,52,54,56,58,60,62,64,-1,-1,-1,-1,-1,-1,-1,-1,-1,-1,-1,-1,-1,-1,-1,-1,-1,-1,-1,-1,-1,-1,-1,-1,-1,-1,-1,-1],"split_conditions":[1.65E1,3.7E0,3.09E1,1.3E0,7.8E0,2.4E1,4.5E1,5E-1,2.4E0,5.4E0,1.14E1,1.97E1,8.10609E-1,1.0892735E0,1.3674681E0,2E-1,9E-1,1.8E0,3E0,4.4E0,6.3E0,9.1E0,1.45E1,5.0483954E-1,6.1959743E-1,1E-1,3E-1,7E-1,1.1E0,1.5E0,2.1E0,2.7E0,3.4E0,4.1E0,4.9E0,5.7E0,7.2E0,1.9594593E-1,2.5366715E-1,3.3706304E-1,4.323419E-1,-7.0443444E-2,-6.756032E-2,-6.411194E-2,-5.9088882E-2,-5.3094033E-2,-4.6208214E-2,-4.0018864E-2,-3.3860255E-2,-2.7124975E-2,-1.9415472E-2,-9.687019E-3,-5.722939E-5,9.265801E-3,1.8874185E-2,3.0233473E-2,4.1490518E-2,5.254129E-2,6.412569E-2,7.714904E-2,9.246682E-2,1.0505868E-1,1.1848266E-1,1.436684E-1,1.6626889E-1],"split_indices":[13,13,13,13,13,13,13,13,13,13,13,13,0,0,0,13,13,13,13,13,13,13,13,0,0,13,13,13,13,13,13,13,13,13,13,13,13,0,0,0,0,0,0,0,0,0,0,0,0,0,0,0,0,0,0,0,0,0,0,0,0,0,0,0,0],"split_type":[0,0,0,0,0,0,0,0,0,0,0,0,0,0,0,0,0,0,0,0,0,0,0,0,0,0,0,0,0,0,0,0,0,0,0,0,0,0,0,0,0,0,0,0,0,0,0,0,0,0,0,0,0,0,0,0,0,0,0,0,0,0,0,0,0],"sum_hessian":[2.1423E4,2.1028E4,3.95E2,1.8438E4,2.59E3,2.03E2,1.92E2,1.2546E4,5.892E3,1.997E3,5.93E2,1.39E2,6.4E1,7.3E1,1.19E2,7.518E3,5.028E3,3.715E3,2.177E3,1.262E3,7.35E2,3.94E2,1.99E2,6.6E1,7.3E1,4.784E3,2.734E3,2.863E3,2.165E3,1.991E3,1.724E3,1.201E3,9.76E2,6.47E2,6.15E2,3.68E2,3.67E2,1.98E2,1.96E2,1.33E2,6.6E1,3.741E3,1.043E3,1.015E3,1.719E3,1.536E3,1.327E3,1.159E3,1.006E3,8.84E2,1.107E3,9.85E2,7.39E2,6.44E2,5.57E2,6.15E2,3.61E2,3.96E2,2.51E2,3.63E2,2.52E2,1.52E2,2.16E2,2.37E2,1.3E2],"tree_param":{"num_deleted":"0","num_feature":"32","num_nodes":"65","size_leaf_vector":"1"}},{"base_weights":[5.525649E-3,-2.0437467E-1,1.1217939E1,-4.4085124E-1,1.7144825E0,7.5516453E0,1.484559E1,-6.431251E-1,7.142242E-2,1.2409749E0,3.4407148E0,6.660184E0,7.306588E-1,1.0309168E0,1.2598763E0,-7.5338155E-1,-4.6033904E-1,-9.823587E-2,3.490287E-1,9.5337343E-1,1.7747928E0,2.9672031E0,4.5867524E0,4.6688965E-1,5.818375E-1,-7.9215676E-1,-6.627577E-1,-5.3883183E-1,-3.7498695E-1,-1.8856217E-1,8.842862E-3,2.3106617E-1,4.8431498E-1,8.1920797E-1,1.1726347E0,1.5642351E0,2.0566554E0,2.11511E-1,2.7307618E-1,3.3184063E-1,3.9824203E-1,-6.481001E-2,-6.063147E-2,-5.5891175E-2,-5.133211E-2,-4.5921E-2,-3.971905E-2,-3.4218412E-2,-2.646637E-2,-1.9402334E-2,-1.1810741E-2,-4.710735E-3,4.413826E-3,1.2640732E-2,2.1959815E-2,3.381805E-2,4.5333404E-2,5.8487687E-2,7.354539E-2,8.6747065E-2,9.902625E-2,1.1695394E-1,1.3625567E-1,1.455284E-1,1.700757E-1],"categories":[],"categories_nodes":[],"categories_segments":[],"categories_sizes":[],"default_left":[0,0,0,0,0,0,0,0,0,0,0,0,0,0,0,0,0,0,0,0,0,0,0,0,0,0,0,0,0,0,0,0,0,0,0,0,0,0,0,0,0,0,0,0,0,0,0,0,0,0,0,0,0,0,0,0,0,0,0,0,0,0,0,0,0],"id":12,"left_children":[1,3,5,7,9,11,13,15,17,19,21,23,-1,-1,-1,25,27,29,31,33,35,37,39,-1,-1,41,43,45,47,49,51,53,55,57,59,61,63,-1,-1,-1,-1,-1,-1,-1,-1,-1,-1,-1,-1,-1,-1,-1,-1,-1,-1,-1,-1,-1,-1,-1,-1,-1,-1,-1,-1],"loss_changes":[5.0716383E4,9.599114E3,5.152465E3,1.9515706E3,1.8924111E3,2.1816699E2,1.4442188E2,2.7164258E2,2.5118698E2,2.7791455E2,2.5642285E2,2.2394043E1,0E0,0E0,0E0,2.8916992E1,3.3760254E1,3.2034042E1,3.2101013E1,3.3758423E1,3.4225708E1,4.173291E1,3.1586914E0,0E0,0E0,2.855957E0,1.3336182E0,3.5480957E0,5.4631042E0,3.8921013E0,4.756632E0,3.3497124E0,4.4342957E0,5.690277E0,1.0043945E0,2.4396973E0,1.6589355E-1,0E0,0E0,0E0,0E0,0E0,0E0,0E0,0E0,0E0,0E0,0E0,0E0,0E0,0E0,0E0,0E0,0E0,0E0,0E0,0E0,0E0,0E0,0E0,0E0,0E0,0E0,0E0,0E0],"parents":[2147483647,0,0,1,1,2,2,3,3,4,4,5,5,6,6,7,7,8,8,9,9,10,10,11,11,15,15,16,16,17,17,18,18,19,19,20,20,21,21,22,22,25,25,26,26,27,27,28,28,29,29,30,30,31,31,32,32,33,33,34,34,35,35,36,36],"right_children":[2,4,6,8,10,12,14,16,18,20,22,24,-1,-1,-1,26,28,30,32,34,36,38,40,-1,-1,42,44,46,48,50,52,54,56,58,60,62,64,-1,-1,-1,-1,-1,-1,-1,-1,-1,-1,-1,-1,-1,-1,-1,-1,-1,-1,-1,-1,-1,-1,-1,-1,-1,-1,-1,-1],"split_conditions":[1.65E1,4E0,3.09E1,1.5E0,8.7E0,2.4E1,4.5E1,6E-1,2.6E0,5.9E0,1.29E1,1.97E1,7.306588E-1,1.0309168E0,1.2598763E0,3E-1,1E0,2E0,3.2E0,5E0,7.2E0,1.05E1,1.45E1,4.6688965E-1,5.818375E-1,1E-1,4E-1,8E-1,1.2E0,1.7E0,2.2E0,2.8E0,3.6E0,4.5E0,5.4E0,6.6E0,7.5E0,2.11511E-1,2.7307618E-1,3.3184063E-1,3.9824203E-1,-6.481001E-2,-6.063147E-2,-5.5891175E-2,-5.133211E-2,-4.5921E-2,-3.971905E-2,-3.4218412E-2,-2.646637E-2,-1.9402334E-2,-1.1810741E-2,-4.710735E-3,4.413826E-3,1.2640732E-2,2.1959815E-2,3.381805E-2,4.5333404E-2,5.8487687E-2,7.354539E-2,8.6747065E-2,9.902625E-2,1.1695394E-1,1.3625567E-1,1.455284E-1,1.700757E-1],"split_indices":[13,13,13,13,13,13,13,13,13,13,13,13,0,0,0,13,13,13,13,13,13,13,13,0,0,13,13,13,13,13,13,13,13,13,13,13,13,0,0,0,0,0,0,0,0,0,0,0,0,0,0,0,0,0,0,0,0,0,0,0,0,0,0,0,0],"split_type":[0,0,0,0,0,0,0,0,0,0,0,0,0,0,0,0,0,0,0,0,0,0,0,0,0,0,0,0,0,0,0,0,0,0,0,0,0,0,0,0,0,0,0,0,0,0,0,0,0,0,0,0,0,0,0,0,0,0,0,0,0,0,0,0,0],"sum_hessian":[2.1547E4,2.1152E4,3.95E2,1.8832E4,2.32E3,1.98E2,1.97E2,1.3501E4,5.331E3,1.822E3,4.98E2,1.3E2,6.8E1,6.7E1,1.3E2,8.419E3,5.082E3,3.309E3,2.022E3,1.186E3,6.36E2,3.55E2,1.43E2,6E1,7E1,5.89E3,2.529E3,2.644E3,2.438E3,1.795E3,1.514E3,1.082E3,9.4E2,7.39E2,4.47E2,3.68E2,2.68E2,2.1E2,1.45E2,7.3E1,7E1,3.847E3,2.043E3,9.23E2,1.606E3,1.436E3,1.208E3,1.106E3,1.332E3,7.71E2,1.024E3,6.14E2,9E2,4.06E2,6.76E2,5.42E2,3.98E2,3.98E2,3.41E2,1.98E2,2.49E2,2.19E2,1.49E2,6.7E1,2.01E2],"tree_param":{"num_deleted":"0","num_feature":"32","num_nodes":"65","size_leaf_vector":"1"}},{"base_weights":[9.792506E-4,-1.922861E-1,1.0264687E1,-4.0099865E-1,1.6143733E0,6.854292E0,1.3674407E1,-5.8962226E-1,7.701892E-2,1.2119932E0,3.3363848E0,6.044498E0,6.7340726E-1,1.1844157E1,1.1599236E0,-6.8123615E-1,-4.0115085E-1,-8.720747E-2,3.3381027E-1,9.4108737E-1,1.7760224E0,2.8266938E0,4.281836E0,4.256935E-1,5.28973E-1,5.5881405E-1,9.764751E-1,-7.285539E-1,-5.963513E-1,-4.5850807E-1,-3.2460234E-1,-1.7265727E-1,1.06732E-2,2.2758377E-1,4.8176277E-1,8.020212E-1,1.1698431E0,1.2454824E-1,1.6099235E-1,2.035475E-1,2.4883293E-1,3.0744967E-1,3.7100986E-1,-5.913546E-2,-5.4142103E-2,-5.0088167E-2,-4.4957664E-2,-3.9068647E-2,-3.3908E-2,-2.8699249E-2,-2.2826435E-2,-1.7863968E-2,-1.0844564E-2,-2.8789209E-3,5.45933E-3,1.3323086E-2,2.2944944E-2,3.3659313E-2,4.4424795E-2,5.6667555E-2,7.1080595E-2,8.506434E-2,9.94681E-2],"categories":[],"categories_nodes":[],"categories_segments":[],"categories_sizes":[],"default_left":[0,0,0,0,0,0,0,0,0,0,0,0,0,0,0,0,0,0,0,0,0,0,0,0,0,0,0,0,0,0,0,0,0,0,0,0,0,0,0,0,0,0,0,0,0,0,0,0,0,0,0,0,0,0,0,0,0,0,0,0,0,0,0],"id":13,"left_children":[1,3,5,7,9,11,13,15,17,19,21,23,-1,25,-1,27,29,31,33,35,37,39,41,-1,-1,-1,-1,43,45,47,49,51,53,55,57,59,61,-1,-1,-1,-1,-1,-1,-1,-1,-1,-1,-1,-1,-1,-1,-1,-1,-1,-1,-1,-1,-1,-1,-1,-1,-1,-1],"loss_changes":[4.271625E4,7.97033E3,4.5323594E3,1.7085508E3,1.5122666E3,2.021289E2,1.2447656E2,2.3421973E2,2.261796E2,2.6942725E2,1.866875E2,1.9464844E1,0E0,3.059961E1,0E0,3.6148438E1,1.9297852E1,2.7376307E1,3.2698273E1,3.7102783E1,2.6299438E1,1.330957E1,3.6499023E0,0E0,0E0,0E0,0E0,2.588379E0,2.8822021E0,2.3285522E0,2.3925934E0,3.216179E0,4.1020236E0,4.3179245E0,3.586731E0,5.295349E0,1.9871216E0,0E0,0E0,0E0,0E0,0E0,0E0,0E0,0E0,0E0,0E0,0E0,0E0,0E0,0E0,0E0,0E0,0E0,0E0,0E0,0E0,0E0,0E0,0E0,0E0,0E0,0E0],"parents":[2147483647,0,0,1,1,2,2,3,3,4,4,5,5,6,6,7,7,8,8,9,9,10,10,11,11,13,13,15,15,16,16,17,17,18,18,19,19,20,20,21,21,22,22,27,27,28,28,29,29,30,30,31,31,32,32,33,33,34,34,35,35,36,36],"right_children":[2,4,6,8,10,12,14,16,18,20,22,24,-1,26,-1,28,30,32,34,36,38,40,42,-1,-1,-1,-1,44,46,48,50,52,54,56,58,60,62,-1,-1,-1,-1,-1,-1,-1,-1,-1,-1,-1,-1,-1,-1,-1,-1,-1,-1,-1,-1,-1,-1,-1,-1,-1,-1],"split_conditions":[1.65E1,4.1E0,3.09E1,1.5E0,9.1E0,2.4E1,4.5E1,7E-1,2.6E0,6.3E0,1.29E1,1.97E1,6.7340726E-1,1.6493075E0,1.1599236E0,3E-1,1.1E0,2E0,3.3E0,5.2E0,7.5E0,1.05E1,1.45E1,4.256935E-1,5.28973E-1,5.5881405E-1,9.764751E-1,2E-1,5E-1,9E-1,1.3E0,1.7E0,2.3E0,2.9E0,3.7E0,4.6E0,5.6E0,1.2454824E-1,1.6099235E-1,2.035475E-1,2.4883293E-1,3.0744967E-1,3.7100986E-1,-5.913546E-2,-5.4142103E-2,-5.0088167E-2,-4.4957664E-2,-3.9068647E-2,-3.3908E-2,-2.8699249E-2,-2.2826435E-2,-1.7863968E-2,-1.0844564E-2,-2.8789209E-3,5.45933E-3,1.3323086E-2,2.2944944E-2,3.3659313E-2,4.4424795E-2,5.6667555E-2,7.1080595E-2,8.506434E-2,9.94681E-2],"split_indices":[13,13,13,13,13,13,13,13,13,13,13,13,0,16,0,13,13,13,13,13,13,13,13,0,0,0,0,13,13,13,13,13,13,13,13,13,13,0,0,0,0,0,0,0,0,0,0,0,0,0,0,0,0,0,0,0,0,0,0,0,0,0,0],"split_type":[0,0,0,0,0,0,0,0,0,0,0,0,0,0,0,0,0,0,0,0,0,0,0,0,0,0,0,0,0,0,0,0,0,0,0,0,0,0,0,0,0,0,0,0,0,0,0,0,0,0,0,0,0,0,0,0,0,0,0,0,0,0,0],"sum_hessian":[2.1532E4,2.1135E4,3.97E2,1.8947E4,2.188E3,2E2,1.97E2,1.3586E4,5.361E3,1.775E3,4.13E2,1.35E2,6.5E1,6.6E1,1.31E2,9.14E3,4.446E3,3.27E3,2.091E3,1.201E3,5.74E2,2.71E2,1.42E2,6.4E1,7.1E1,6E0,6E1,5.863E3,3.277E3,2.538E3,1.908E3,1.746E3,1.524E3,1.219E3,8.72E2,7.5E2,4.51E2,3.02E2,2.72E2,1.41E2,1.3E2,6.9E1,7.3E1,4.851E3,1.012E3,1.746E3,1.531E3,1.355E3,1.183E3,1.015E3,8.93E2,7.35E2,1.011E3,8.41E2,6.83E2,6.03E2,6.16E2,4.81E2,3.91E2,3.65E2,3.85E2,1.91E2,2.6E2],"tree_param":{"num_deleted":"0","num_feature":"32","num_nodes":"63","size_leaf_vector":"1"}},{"base_weights":[1.3493334E-2,-1.9282492E-1,4.1181717E0,-3.0059093E-1,2.2374945E-2,2.836088E0,5.1666994E0,-3.1096667E-1,7.509471E-1,8.920009E-3,3.1870246E0,1.4040581E0,3.2996657E0,4.256791E0,7.1633887E0,-3.3990908E-1,-2.9294286E-2,6.240933E-1,2.6691836E-1,-4.3498483E-2,6.601593E-1,4.713946E-1,2.2207253E0,1.8455501E0,7.145156E-1,3.8681839E0,2.298287E0,3.8950386E0,6.545267E0,7.880917E0,5.7153378E0,-3.151952E-1,-4.0253082E-1,-1.10001236E-1,1.9847095E-1,9.7221017E-1,3.3360893E-1,1.5416971E-2,-1.9088365E-1,8.5542446E-1,2.9794997E-1,8.1218684E-1,3.1684852E-1,9.991798E-1,2.874881E0,1.1185734E0,-1.3200723E-1,3.149289E0,5.0647073E0,1.5762675E0,3.0166776E0,4.170071E0,3.080559E0,1.4527719E-1,7.238359E0,8.262745E0,4.528967E0,6.690174E0,4.0009737E0,-2.683384E-2,-1.9021386E-2,-3.4019414E-2,-2.8544888E-2,-1.3710774E-2,-2.177794E-3,7.4880086E-3,4.8704304E-2,-5.567614E-4,9.233924E-2,2.9493975E-3,5.6020692E-2,-2.589319E-3,1.5791127E-2,-1.6457152E-2,1.0305422E-1,5.8649678E-2,1.3051702E-1,5.4909434E-2,1.14007555E-2,9.4723105E-2,2.0552058E-2,3.4840066E-2,1.5223557E-1,3.219625E-1,1.6290775E-1,5.4227527E-2,1.8748249E-1,9.708233E-3,-3.9150227E-2,2.682653E-1,3.2445688E-2,4.3093383E-1,1.474861E-1,8.2942426E-2,2.5798672E-1,3.3518717E-1,1.5376493E-1,3.586942E-1,2.3005952E-1,1.1895216E-3,2.7698672E-1,6.0549355E-1,3.4797767E-1,5.9091824E-1,8.0225414E-1,1.4663757E-1,5.0474745E-1,5.91697E-1,2.4844028E-1,4.1506892E-1,1.3528441E-1],"categories":[],"categories_nodes":[],"categories_segments":[],"categories_sizes":[],"default_left":[0,0,0,0,0,0,0,0,0,0,0,0,0,0,0,0,0,0,0,0,0,0,0,0,0,0,0,0,0,0,0,0,0,0,0,0,0,0,0,0,0,0,0,0,0,0,0,0,0,0,0,0,0,0,0,0,0,0,0,0,0,0,0,0,0,0,0,0,0,0,0,0,0,0,0,0,0,0,0,0,0,0,0,0,0,0,0,0,0,0,0,0,0,0,0,0,0,0,0,0,0,0,0,0,0,0,0,0,0,0,0],"id":14,"left_children":[1,3,5,7,9,11,13,15,17,19,21,23,25,27,29,31,33,35,-1,37,39,-1,41,43,45,47,49,51,53,55,57,59,61,63,65,67,69,71,73,75,77,79,-1,81,83,85,87,89,91,93,95,97,99,-1,101,103,105,107,109,-1,-1,-1,-1,-1,-1,-1,-1,-1,-1,-1,-1,-1,-1,-1,-1,-1,-1,-1,-1,-1,-1,-1,-1,-1,-1,-1,-1,-1,-1,-1,-1,-1,-1,-1,-1,-1,-1,-1,-1,-1,-1,-1,-1,-1,-1,-1,-1,-1,-1,-1,-1],"loss_changes":[1.8279184E4,4.7663757E2,1.373209E3,1.4959778E2,2.916667E2,3.0491797E2,9.984922E2,1.10506226E2,4.1471603E1,2.3324597E2,6.1915955E1,3.373889E1,1.9088794E2,2.979839E2,1.3646582E2,1.8832397E1,2.3266516E1,1.2589886E1,0E0,5.491609E1,3.5629745E1,0E0,5.267183E1,5.7723724E1,1.6322395E1,1.7504712E2,6.2215576E1,6.281543E1,1.563977E2,1.0848389E2,7.577966E1,1.36814575E1,3.378418E0,4.7264414E0,1.411635E1,1.0460598E1,7.734083E0,3.929937E1,3.9772446E1,2.988852E1,1.0686958E1,2.442505E0,0E0,1.9314754E1,2.1083221E1,1.5385307E1,1.5448854E0,7.775476E1,7.438794E1,5.5818893E1,7.352203E1,8.865918E1,1.04937256E2,0E0,8.822998E0,8.1978516E1,5.4819397E1,7.215564E1,5.9107483E1,0E0,0E0,0E0,0E0,0E0,0E0,0E0,0E0,0E0,0E0,0E0,0E0,0E0,0E0,0E0,0E0,0E0,0E0,0E0,0E0,0E0,0E0,0E0,0E0,0E0,0E0,0E0,0E0,0E0,0E0,0E0,0E0,0E0,0E0,0E0,0E0,0E0,0E0,0E0,0E0,0E0,0E0,0E0,0E0,0E0,0E0,0E0,0E0,0E0,0E0,0E0,0E0],"parents":[2147483647,0,0,1,1,2,2,3,3,4,4,5,5,6,6,7,7,8,8,9,9,10,10,11,11,12,12,13,13,14,14,15,15,16,16,17,17,19,19,20,20,22,22,23,23,24,24,25,25,26,26,27,27,28,28,29,29,30,30,31,31,32,32,33,33,34,34,35,35,36,36,37,37,38,38,39,39,40,40,41,41,43,43,44,44,45,45,46,46,47,47,48,48,49,49,50,50,51,51,52,52,54,54,55,55,56,56,57,57,58,58],"right_children":[2,4,6,8,10,12,14,16,18,20,22,24,26,28,30,32,34,36,-1,38,40,-1,42,44,46,48,50,52,54,56,58,60,62,64,66,68,70,72,74,76,78,80,-1,82,84,86,88,90,92,94,96,98,100,-1,102,104,106,108,110,-1,-1,-1,-1,-1,-1,-1,-1,-1,-1,-1,-1,-1,-1,-1,-1,-1,-1,-1,-1,-1,-1,-1,-1,-1,-1,-1,-1,-1,-1,-1,-1,-1,-1,-1,-1,-1,-1,-1,-1,-1,-1,-1,-1,-1,-1,-1,-1,-1,-1,-1,-1],"split_conditions":[4.2E0,1E0,2.0088642E0,1.8E0,3.1E0,6.7E-1,1.28E0,1.01E0,2.325E0,1.26E0,-5E-1,5E0,5E0,3.4337018E0,5E0,5E0,2.2E0,6.123234E-17,2.6691836E-1,5E0,5E0,4.713946E-1,1E1,4E0,5.8E0,3E0,1.08E0,8.660254E-1,5.1E-1,2E1,1E0,4E0,1.9423398E0,1.8305556E0,1E0,-8.660254E-1,1E0,4E0,1.1E0,2.93E0,6.1E0,3.4E-1,3.1684852E-1,5.9E-1,5E-1,1E0,1E0,1E0,1.9423398E0,2.4298344E0,3.3E0,1E0,1E0,1.4527719E-1,6E0,1.85E0,1E-1,1E0,2.325E0,-2.683384E-2,-1.9021386E-2,-3.4019414E-2,-2.8544888E-2,-1.3710774E-2,-2.177794E-3,7.4880086E-3,4.8704304E-2,-5.567614E-4,9.233924E-2,2.9493975E-3,5.6020692E-2,-2.589319E-3,1.5791127E-2,-1.6457152E-2,1.0305422E-1,5.8649678E-2,1.3051702E-1,5.4909434E-2,1.14007555E-2,9.4723105E-2,2.0552058E-2,3.4840066E-2,1.5223557E-1,3.219625E-1,1.6290775E-1,5.4227527E-2,1.8748249E-1,9.708233E-3,-3.9150227E-2,2.682653E-1,3.2445688E-2,4.3093383E-1,1.474861E-1,8.2942426E-2,2.5798672E-1,3.3518717E-1,1.5376493E-1,3.586942E-1,2.3005952E-1,1.1895216E-3,2.7698672E-1,6.0549355E-1,3.4797767E-1,5.9091824E-1,8.0225414E-1,1.4663757E-1,5.0474745E-1,5.91697E-1,2.4844028E-1,4.1506892E-1,1.3528441E-1],"split_indices":[11,4,16,11,11,10,10,10,16,10,8,1,1,16,1,1,10,8,0,1,1,0,0,1,14,1,10,8,10,0,25,1,16,16,26,6,29,1,11,10,9,10,0,10,8,21,31,23,16,17,14,23,1,0,1,10,14,26,16,0,0,0,0,0,0,0,0,0,0,0,0,0,0,0,0,0,0,0,0,0,0,0,0,0,0,0,0,0,0,0,0,0,0,0,0,0,0,0,0,0,0,0,0,0,0,0,0,0,0,0,0],"split_type":[0,0,0,0,0,0,0,0,0,0,0,0,0,0,0,0,0,0,0,0,0,0,0,0,0,0,0,0,0,0,0,0,0,0,0,0,0,0,0,0,0,0,0,0,0,0,0,0,0,0,0,0,0,0,0,0,0,0,0,0,0,0,0,0,0,0,0,0,0,0,0,0,0,0,0,0,0,0,0,0,0,0,0,0,0,0,0,0,0,0,0,0,0,0,0,0,0,0,0,0,0,0,0,0,0,0,0,0,0,0,0],"sum_hessian":[2.1582E4,2.055E4,1.032E3,1.3693E4,6.857E3,4.66E2,5.66E2,1.356E4,1.33E2,6.829E3,2.8E1,1.15E2,3.51E2,3.91E2,1.75E2,1.2296E4,1.264E3,1.28E2,5E0,6.321E3,5.08E2,6E0,2.2E1,6.9E1,4.6E1,2.22E2,1.29E2,3.4E2,5.1E1,1.14E2,6.1E1,8.822E3,3.474E3,9.34E2,3.3E2,5.7E1,7.1E1,4.516E3,1.805E3,3.29E2,1.79E2,1.3E1,9E0,3.9E1,3E1,3.1E1,1.5E1,1.41E2,8.1E1,6.6E1,6.3E1,2.51E2,8.9E1,7E0,4.4E1,1.01E2,1.3E1,3.7E1,2.4E1,6.991E3,1.831E3,2.314E3,1.16E3,5.35E2,3.99E2,2.64E2,6.6E1,9E0,4.8E1,4E1,3.1E1,3.577E3,9.39E2,1.788E3,1.7E1,2.86E2,4.3E1,5E1,1.29E2,7E0,6E0,2.5E1,1.4E1,1.1E1,1.9E1,2.4E1,7E0,9E0,6E0,1.31E2,1E1,7.3E1,8E0,5.1E1,1.5E1,2.9E1,3.4E1,2E2,5.1E1,1E1,7.9E1,3.8E1,6E0,7.1E1,3E1,6E0,7E0,3E1,7E0,1.5E1,9E0],"tree_param":{"num_deleted":"0","num_feature":"32","num_nodes":"111","size_leaf_vector":"1"}},{"base_weights":[-8.219633E-3,-1.8274397E-1,3.5537932E0,-2.80317E-1,1.3619073E-2,2.5497036E0,4.774164E0,-2.8952068E-1,7.28122E-1,-2.9399493E-3,2.3960805E0,2.3392892E0,4.763117E0,3.4354544E0,6.259686E0,-3.211977E-1,-9.1766655E-2,1.0959703E0,3.8674057E-1,-4.9244713E-2,5.776702E-1,8.128553E-1,3.1096907E0,1.4994116E0,2.6490555E0,6.571377E-1,6.1492486E0,2.415652E0,4.25078E0,5.769733E0,8.361581E0,-2.984376E-1,-3.7898785E-1,-1.5061995E-1,4.547337E-2,3.9460418E-1,1.4167541E0,2.4248333E-1,1.2429575E-1,6.8527245E-4,-1.7866783E-1,5.296807E-1,1.5434654E0,1.18636034E-1,3.6436203E-1,1.1726286E-1,3.6848803E0,1.3327283E0,3.550325E-1,2.0404925E0,3.0203128E0,-7.6903277E-3,1.2549096E-1,8.332978E0,4.0898023E0,4.6589667E-1,2.8745039E0,4.5721326E0,1.4327546E0,4.5238533E0,6.374293E0,9.84617E0,4.7415123E0,-2.5369303E-2,-1.8346423E-2,-3.180295E-2,-2.791079E-2,-1.8244974E-2,-6.261454E-3,1.8494375E-3,4.7169335E-2,6.1957676E-2,-2.0760395E-2,3.83257E-2,1.477427E-1,1.0218919E-2,8.629976E-2,-3.8727887E-3,1.4581358E-2,-1.5207847E-2,9.915239E-2,2.9881293E-2,6.7358255E-2,2.6149356E-1,1.5502893E-2,5.9601787E-2,-4.8286924E-3,4.1046634E-1,1.5388192E-1,3.1912285E-1,9.40029E-2,3.8094997E-1,1.5086558E-1,3.817144E-1,2.0087168E-1,8.273507E-1,2.5955918E-1,5.2074486E-1,8.0749035E-2,3.1524491E-3,7.0377156E-2,2.704791E-1,1.03342816E-1,4.2674842E-1,2.4930348E-1,1.7514767E-1,1.9282373E-2,2.5869524E-1,5.208387E-1,2.9749745E-1,5.649506E-1,4.927907E-1,8.699846E-1,5.316247E-1,1.1169585E-1],"categories":[],"categories_nodes":[],"categories_segments":[],"categories_sizes":[],"default_left":[0,0,0,0,0,0,0,0,0,0,0,0,0,0,0,0,0,0,0,0,0,0,0,0,0,0,0,0,0,0,0,0,0,0,0,0,0,0,0,0,0,0,0,0,0,0,0,0,0,0,0,0,0,0,0,0,0,0,0,0,0,0,0,0,0,0,0,0,0,0,0,0,0,0,0,0,0,0,0,0,0,0,0,0,0,0,0,0,0,0,0,0,0,0,0,0,0,0,0,0,0,0,0,0,0,0,0,0,0,0,0,0,0,0,0],"id":15,"left_children":[1,3,5,7,9,11,13,15,17,19,21,23,25,27,29,31,33,35,37,39,41,43,45,47,49,51,53,55,57,59,61,63,65,67,69,71,73,75,-1,77,79,81,83,-1,85,-1,87,89,-1,91,93,-1,-1,95,97,99,101,103,105,107,109,111,113,-1,-1,-1,-1,-1,-1,-1,-1,-1,-1,-1,-1,-1,-1,-1,-1,-1,-1,-1,-1,-1,-1,-1,-1,-1,-1,-1,-1,-1,-1,-1,-1,-1,-1,-1,-1,-1,-1,-1,-1,-1,-1,-1,-1,-1,-1,-1,-1,-1,-1,-1,-1],"loss_changes":[1.3362849E4,3.9265186E2,1.2173584E3,1.2722839E2,2.686331E2,2.4569849E2,8.764092E2,8.491638E1,1.4999367E1,1.8163765E2,5.018091E1,1.2751709E2,2.6277563E2,1.8861816E2,1.6969727E2,1.5199097E1,1.516179E1,1.2534035E1,1.0554201E1,4.0464172E1,2.2102783E1,4.0834684E0,2.4341492E1,6.15903E1,7.6700195E1,9.223872E0,1.2208203E2,9.5843506E1,1.12385254E2,1.0263818E2,1.5607935E2,1.0709106E1,1.6287842E0,7.308363E0,6.7737336E0,5.221962E0,1.5011932E1,5.499072E0,0E0,4.0290264E1,2.838285E1,2.2827148E1,5.2575184E1,0E0,1.8918524E0,0E0,4.800244E1,5.050717E1,0E0,5.0547302E1,1.8978638E2,0E0,0E0,1.2864392E2,1.4174088E2,3.7561932E0,6.570807E1,1.134729E2,1.2753994E1,1.3432031E2,1.844707E2,2.9897217E1,7.2712036E1,0E0,0E0,0E0,0E0,0E0,0E0,0E0,0E0,0E0,0E0,0E0,0E0,0E0,0E0,0E0,0E0,0E0,0E0,0E0,0E0,0E0,0E0,0E0,0E0,0E0,0E0,0E0,0E0,0E0,0E0,0E0,0E0,0E0,0E0,0E0,0E0,0E0,0E0,0E0,0E0,0E0,0E0,0E0,0E0,0E0,0E0,0E0,0E0,0E0,0E0,0E0,0E0],"parents":[2147483647,0,0,1,1,2,2,3,3,4,4,5,5,6,6,7,7,8,8,9,9,10,10,11,11,12,12,13,13,14,14,15,15,16,16,17,17,18,18,19,19,20,20,21,21,22,22,23,23,24,24,25,25,26,26,27,27,28,28,29,29,30,30,31,31,32,32,33,33,34,34,35,35,36,36,37,37,39,39,40,40,41,41,42,42,44,44,46,46,47,47,49,49,50,50,53,53,54,54,55,55,56,56,57,57,58,58,59,59,60,60,61,61,62,62],"right_children":[2,4,6,8,10,12,14,16,18,20,22,24,26,28,30,32,34,36,38,40,42,44,46,48,50,52,54,56,58,60,62,64,66,68,70,72,74,76,-1,78,80,82,84,-1,86,-1,88,90,-1,92,94,-1,-1,96,98,100,102,104,106,108,110,112,114,-1,-1,-1,-1,-1,-1,-1,-1,-1,-1,-1,-1,-1,-1,-1,-1,-1,-1,-1,-1,-1,-1,-1,-1,-1,-1,-1,-1,-1,-1,-1,-1,-1,-1,-1,-1,-1,-1,-1,-1,-1,-1,-1,-1,-1,-1,-1,-1,-1,-1,-1,-1],"split_conditions":[4.2E0,1E0,2.1097221E0,2E0,2.2E0,1.86E1,1.04E0,4.6E-1,1.55E0,1.26E0,9.5E-1,6.8E-1,1.5969445E0,6.9E-1,1.85E0,5E0,1.82E0,1.57E0,4.9E0,5E0,3.55E0,0E0,2.7E-1,3.03E1,1.9E0,2E0,2.4298344E0,2.3977528E0,4.3E0,3.1748602E0,4E0,4E0,1.9083333E0,1.7831491E0,1.57E1,1E0,4E0,4E-1,1.2429575E-1,4E0,3E-1,3.2451525E0,3.2E0,1.18636034E-1,3.1E0,1.1726286E-1,3.2451525E0,-7.0710677E-1,3.550325E-1,-1.6E0,4.5E0,-7.6903277E-3,1.2549096E-1,5E0,4E0,8.660254E-1,1E0,5E0,6E0,1E0,9.3333334E-1,8.660254E-1,1E0,-2.5369303E-2,-1.8346423E-2,-3.180295E-2,-2.791079E-2,-1.8244974E-2,-6.261454E-3,1.8494375E-3,4.7169335E-2,6.1957676E-2,-2.0760395E-2,3.83257E-2,1.477427E-1,1.0218919E-2,8.629976E-2,-3.8727887E-3,1.4581358E-2,-1.5207847E-2,9.915239E-2,2.9881293E-2,6.7358255E-2,2.6149356E-1,1.5502893E-2,5.9601787E-2,-4.8286924E-3,4.1046634E-1,1.5388192E-1,3.1912285E-1,9.40029E-2,3.8094997E-1,1.5086558E-1,3.817144E-1,2.0087168E-1,8.273507E-1,2.5955918E-1,5.2074486E-1,8.0749035E-2,3.1524491E-3,7.0377156E-2,2.704791E-1,1.03342816E-1,4.2674842E-1,2.4930348E-1,1.7514767E-1,1.9282373E-2,2.5869524E-1,5.208387E-1,2.9749745E-1,5.649506E-1,4.927907E-1,8.699846E-1,5.316247E-1,1.1169585E-1],"split_indices":[11,4,16,11,11,11,10,10,15,10,14,10,16,10,10,1,10,16,15,1,10,9,10,14,14,1,17,16,15,17,1,1,16,16,9,21,2,10,0,1,11,16,14,0,15,0,16,5,0,9,14,0,0,1,2,7,7,1,15,24,15,7,7,0,0,0,0,0,0,0,0,0,0,0,0,0,0,0,0,0,0,0,0,0,0,0,0,0,0,0,0,0,0,0,0,0,0,0,0,0,0,0,0,0,0,0,0,0,0,0,0,0,0,0,0],"split_type":[0,0,0,0,0,0,0,0,0,0,0,0,0,0,0,0,0,0,0,0,0,0,0,0,0,0,0,0,0,0,0,0,0,0,0,0,0,0,0,0,0,0,0,0,0,0,0,0,0,0,0,0,0,0,0,0,0,0,0,0,0,0,0,0,0,0,0,0,0,0,0,0,0,0,0,0,0,0,0,0,0,0,0,0,0,0,0,0,0,0,0,0,0,0,0,0,0,0,0,0,0,0,0,0,0,0,0,0,0,0,0,0,0,0,0],"sum_hessian":[2.1494E4,2.0491E4,1.003E3,1.3689E4,6.802E3,5.52E2,4.51E2,1.3566E4,1.23E2,6.756E3,4.6E1,5.06E2,4.6E1,2.39E2,2.12E2,1.1692E4,1.874E3,5.8E1,6.5E1,6.258E3,4.98E2,1.5E1,3.1E1,1.38E2,3.68E2,1.2E1,3.4E1,1.08E2,1.31E2,1.75E2,3.7E1,8.394E3,3.298E3,1.312E3,5.62E2,1.9E1,3.9E1,5.9E1,6E0,4.516E3,1.742E3,4.76E2,2.2E1,5E0,1E1,9E0,2.2E1,1.32E2,6E0,1.42E2,2.26E2,7E0,5E0,1.5E1,1.9E1,2.1E1,8.7E1,1.17E2,1.4E1,6E1,1.15E2,2.5E1,1.2E1,6.604E3,1.79E3,2.031E3,1.267E3,6.32E2,6.8E2,5.41E2,2.1E1,1.2E1,7E0,1.3E1,2.6E1,5.3E1,6E0,3.555E3,9.61E2,1.729E3,1.3E1,3.19E2,1.57E2,9E0,1.3E1,5E0,5E0,1.1E1,1.1E1,6E0,1.26E2,6E0,1.36E2,4.9E1,1.77E2,1E1,5E0,1E1,9E0,1.1E1,1E1,6.5E1,2.2E1,7.5E1,4.2E1,8E0,6E0,3.8E1,2.2E1,2.5E1,9E1,7E0,1.8E1,7E0,5E0],"tree_param":{"num_deleted":"0","num_feature":"32","num_nodes":"115","size_leaf_vector":"1"}},{"base_weights":[2.5269499E-3,-1.5921676E-1,8.738181E0,-3.549831E-1,1.2964711E0,5.67744E0,1.1738214E1,-5.3359306E-1,2.1036547E-2,9.7035944E-1,2.678827E0,5.0914974E0,5.6890106E-1,8.3059406E-1,9.901265E-1,-6.23949E-1,-3.9928964E-1,-1.18358664E-1,2.4400626E-1,7.581078E-1,1.4390533E0,2.1994996E0,3.3288014E0,3.6132804E-1,4.4573215E-1,-6.1107576E-1,-1.1604148E0,-4.5120665E-1,-3.315142E-1,-1.9406389E-1,-3.2949332E-2,1.5181966E-1,3.5132018E-1,6.1016095E-1,9.182985E-1,1.217624E0,1.6008502E0,2.3334582E0,1.461228E-1,2.4268119E-1,3.039675E-1,-5.1627047E-2,-4.4218477E-2,-8.27774E-2,-1.073213E-1,-3.585737E-2,-7.358399E-2,-2.6130551E-2,-6.546084E-2,-1.5184667E-2,-5.522722E-2,-1.8800399E-3,-4.2461105E-2,1.2839354E-2,-1.699266E-2,2.9392974E-2,-1.5399582E-2,5.0471842E-2,1.0903028E-2,7.5109385E-2,3.8213693E-2,1.0180909E-1,6.125951E-2,1.327858E-1,9.5251404E-2,1.6804446E-1,2.0749326E-1],"categories":[],"categories_nodes":[],"categories_segments":[],"categories_sizes":[],"default_left":[0,0,0,0,0,0,0,0,0,0,0,0,0,0,0,0,0,0,0,0,0,0,0,0,0,0,0,0,0,0,0,0,0,0,0,0,0,0,0,0,0,0,0,0,0,0,0,0,0,0,0,0,0,0,0,0,0,0,0,0,0,0,0,0,0,0,0],"id":16,"left_children":[1,3,5,7,9,11,13,15,17,19,21,23,-1,-1,-1,25,27,29,31,33,35,37,39,-1,-1,41,43,45,47,49,51,53,55,57,59,61,63,65,-1,-1,-1,-1,-1,-1,-1,-1,-1,-1,-1,-1,-1,-1,-1,-1,-1,-1,-1,-1,-1,-1,-1,-1,-1,-1,-1,-1,-1],"loss_changes":[3.0312578E4,6.002787E3,3.5127168E3,1.2470383E3,1.1226895E3,1.26398926E2,3.886133E1,1.5240503E2,1.859053E2,1.9983997E2,1.4042358E2,1.3023926E1,0E0,0E0,0E0,5.1068115E1,1.75979E1,2.3765533E1,2.2659927E1,3.2324158E1,2.0303833E1,9.161255E0,1.5594238E1,0E0,0E0,1.4214355E1,2.3579712E0,3.4644775E0,4.851181E0,3.8992157E0,8.074316E0,3.9456673E0,9.381866E0,6.991211E0,5.455017E0,5.5308228E0,6.4473877E0,6.203003E0,0E0,0E0,0E0,0E0,0E0,0E0,0E0,0E0,0E0,0E0,0E0,0E0,0E0,0E0,0E0,0E0,0E0,0E0,0E0,0E0,0E0,0E0,0E0,0E0,0E0,0E0,0E0,0E0,0E0],"parents":[2147483647,0,0,1,1,2,2,3,3,4,4,5,5,6,6,7,7,8,8,9,9,10,10,11,11,15,15,16,16,17,17,18,18,19,19,20,20,21,21,22,22,25,25,26,26,27,27,28,28,29,29,30,30,31,31,32,32,33,33,34,34,35,35,36,36,37,37],"right_children":[2,4,6,8,10,12,14,16,18,20,22,24,-1,-1,-1,26,28,30,32,34,36,38,40,-1,-1,42,44,46,48,50,52,54,56,58,60,62,64,66,-1,-1,-1,-1,-1,-1,-1,-1,-1,-1,-1,-1,-1,-1,-1,-1,-1,-1,-1,-1,-1,-1,-1,-1,-1,-1,-1,-1,-1],"split_conditions":[1.65E1,3.8E0,3.09E1,1.3E0,8.7E0,2.4E1,4.5E1,5E-1,2.4E0,5.9E0,1.14E1,1.97E1,5.6890106E-1,8.3059406E-1,9.901265E-1,4.5E0,9E-1,1.8E0,3E0,4.7E0,6.8E0,3.7E0,1.45E1,3.6132804E-1,4.4573215E-1,2E-1,2.7530556E0,4.2E0,4E0,5.2E0,4.8E0,3.1E0,5E0,4.6E0,4.1E0,4.1E0,4.5E0,9.7E0,1.461228E-1,2.4268119E-1,3.039675E-1,-5.1627047E-2,-4.4218477E-2,-8.27774E-2,-1.073213E-1,-3.585737E-2,-7.358399E-2,-2.6130551E-2,-6.546084E-2,-1.5184667E-2,-5.522722E-2,-1.8800399E-3,-4.2461105E-2,1.2839354E-2,-1.699266E-2,2.9392974E-2,-1.5399582E-2,5.0471842E-2,1.0903028E-2,7.5109385E-2,3.8213693E-2,1.0180909E-1,6.125951E-2,1.327858E-1,9.5251404E-2,1.6804446E-1,2.0749326E-1],"split_indices":[13,13,13,13,13,13,13,13,13,13,13,13,0,0,0,11,13,13,13,13,13,11,13,0,0,13,17,11,11,11,11,11,11,11,11,11,11,13,0,0,0,0,0,0,0,0,0,0,0,0,0,0,0,0,0,0,0,0,0,0,0,0,0,0,0,0,0],"split_type":[0,0,0,0,0,0,0,0,0,0,0,0,0,0,0,0,0,0,0,0,0,0,0,0,0,0,0,0,0,0,0,0,0,0,0,0,0,0,0,0,0,0,0,0,0,0,0,0,0,0,0,0,0,0,0,0,0,0,0,0,0,0,0,0,0,0,0],"sum_hessian":[2.1451E4,2.1062E4,3.89E2,1.8566E4,2.496E3,1.94E2,1.95E2,1.2587E4,5.979E3,2.021E3,4.75E2,1.41E2,5.3E1,6.8E1,1.27E2,7.522E3,5.065E3,3.679E3,2.3E3,1.393E3,6.28E2,2.76E2,1.99E2,6.9E1,7.2E1,7.348E3,1.74E2,2.864E3,2.201E3,1.949E3,1.73E3,1.239E3,1.061E3,7.27E2,6.66E2,2.69E2,3.59E2,1.99E2,7.7E1,1.27E2,7.2E1,4.622E3,2.726E3,1.07E2,6.7E1,2.848E3,1.6E1,2.181E3,2E1,1.934E3,1.5E1,1.699E3,3.1E1,1.211E3,2.8E1,1.031E3,3E1,6.96E2,3.1E1,6.35E2,3.1E1,2.38E2,3.1E1,3.11E2,4.8E1,1.1E2,8.9E1],"tree_param":{"num_deleted":"0","num_feature":"32","num_nodes":"67","size_leaf_vector":"1"}},{"base_weights":[2.4281864E-3,-1.4725623E-1,8.0085125E0,-3.4015313E-1,1.1019031E0,5.299639E0,1.0773332E1,-5.0041467E-1,-2.5000377E-2,7.7093387E-1,2.2768004E0,4.59189E0,5.2684766E-1,9.387368E0,9.1185117E-1,-5.8600104E-1,-3.931886E-1,-1.464204E-1,1.628004E-1,5.6675035E-1,1.1153336E0,1.7985196E0,2.8604593E0,3.3111206E-1,3.9700457E-1,4.3170404E-1,7.755896E-1,-5.790363E-1,-1.1709995E0,-4.417778E-1,-3.3031756E-1,-2.081805E-1,-6.7786336E-2,8.4087245E-2,2.575048E-1,4.662884E-1,6.9108236E-1,9.940485E-1,1.3495456E0,1.9057727E0,1.5594013E0,1.9650868E-1,2.623009E-1,-4.879484E-2,-4.3180414E-2,-8.2382955E-2,-1.08742416E-1,-3.6442228E-2,-3.1500418E-2,-2.6276965E-2,-6.555934E-2,-1.6464489E-2,-5.3774834E-2,-5.2129226E-3,-4.2172015E-2,7.069076E-3,-3.806304E-2,2.104127E-2,-2.0313382E-2,3.8029127E-2,-1.1953234E-3,5.67273E-2,1.3445037E-2,8.049515E-2,3.6502596E-2,8.204403E-2,1.1249131E-1,1.3928664E-1,1.6927998E-1,1.103965E-1,1.356411E-1],"categories":[],"categories_nodes":[],"categories_segments":[],"categories_sizes":[],"default_left":[0,0,0,0,0,0,0,0,0,0,0,0,0,0,0,0,0,0,0,0,0,0,0,0,0,0,0,0,0,0,0,0,0,0,0,0,0,0,0,0,0,0,0,0,0,0,0,0,0,0,0,0,0,0,0,0,0,0,0,0,0,0,0,0,0,0,0,0,0,0,0],"id":17,"left_children":[1,3,5,7,9,11,13,15,17,19,21,23,-1,25,-1,27,29,31,33,35,37,39,41,-1,-1,-1,-1,43,45,47,49,51,53,55,57,59,61,63,65,67,69,-1,-1,-1,-1,-1,-1,-1,-1,-1,-1,-1,-1,-1,-1,-1,-1,-1,-1,-1,-1,-1,-1,-1,-1,-1,-1,-1,-1,-1,-1],"loss_changes":[2.5726518E4,5.078027E3,2.8921777E3,9.219375E2,1.0941221E3,1.515791E2,5.891992E1,1.1072388E2,1.4037329E2,1.5397571E2,1.671853E2,8.820801E-1,0E0,2.717334E1,0E0,2.6555664E1,1.6196655E1,1.8116554E1,1.7961662E1,1.684903E1,2.1660583E1,5.4782715E0,3.8195557E1,0E0,0E0,0E0,0E0,7.6271973E0,4.3515778E-1,1.7351074E0,1.7472229E0,2.079773E0,1.8922763E0,3.1683588E0,3.156784E0,3.4117432E0,5.595276E0,2.9398193E0,3.375763E0,3.9625244E0,8.828735E-2,0E0,0E0,0E0,0E0,0E0,0E0,0E0,0E0,0E0,0E0,0E0,0E0,0E0,0E0,0E0,0E0,0E0,0E0,0E0,0E0,0E0,0E0,0E0,0E0,0E0,0E0,0E0,0E0,0E0,0E0],"parents":[2147483647,0,0,1,1,2,2,3,3,4,4,5,5,6,6,7,7,8,8,9,9,10,10,11,11,13,13,15,15,16,16,17,17,18,18,19,19,20,20,21,21,22,22,27,27,28,28,29,29,30,30,31,31,32,32,33,33,34,34,35,35,36,36,37,37,38,38,39,39,40,40],"right_children":[2,4,6,8,10,12,14,16,18,20,22,24,-1,26,-1,28,30,32,34,36,38,40,42,-1,-1,-1,-1,44,46,48,50,52,54,56,58,60,62,64,66,68,70,-1,-1,-1,-1,-1,-1,-1,-1,-1,-1,-1,-1,-1,-1,-1,-1,-1,-1,-1,-1,-1,-1,-1,-1,-1,-1,-1,-1,-1,-1],"split_conditions":[1.65E1,3.5E0,3.09E1,1.2E0,7.8E0,2.4E1,4.5E1,4E-1,2.2E0,5.2E0,1.05E1,1.97E1,5.2684766E-1,1.6461111E0,9.1185117E-1,7.3E1,8E-1,1.7E0,2.8E0,4.3E0,6.6E0,7.1E1,1.29E1,3.3111206E-1,3.9700457E-1,4.3170404E-1,7.755896E-1,1E-1,2.068889E0,7E-1,7.3E1,7.3E1,7.3E1,7.3E1,7.3E1,7.3E1,7.3E1,7.3E1,1.2E0,9.1E0,9.1E0,1.9650868E-1,2.623009E-1,-4.879484E-2,-4.3180414E-2,-8.2382955E-2,-1.08742416E-1,-3.6442228E-2,-3.1500418E-2,-2.6276965E-2,-6.555934E-2,-1.6464489E-2,-5.3774834E-2,-5.2129226E-3,-4.2172015E-2,7.069076E-3,-3.806304E-2,2.104127E-2,-2.0313382E-2,3.8029127E-2,-1.1953234E-3,5.67273E-2,1.3445037E-2,8.049515E-2,3.6502596E-2,8.204403E-2,1.1249131E-1,1.3928664E-1,1.6927998E-1,1.103965E-1,1.356411E-1],"split_indices":[13,13,13,13,13,13,13,13,13,13,13,13,0,16,0,12,13,13,13,13,13,12,13,0,0,0,0,13,16,13,12,12,12,12,12,12,12,12,9,13,13,0,0,0,0,0,0,0,0,0,0,0,0,0,0,0,0,0,0,0,0,0,0,0,0,0,0,0,0,0,0],"split_type":[0,0,0,0,0,0,0,0,0,0,0,0,0,0,0,0,0,0,0,0,0,0,0,0,0,0,0,0,0,0,0,0,0,0,0,0,0,0,0,0,0,0,0,0,0,0,0,0,0,0,0,0,0,0,0,0,0,0,0,0,0,0,0,0,0,0,0,0,0,0,0],"sum_hessian":[2.1465E4,2.1072E4,3.93E2,1.8254E4,2.818E3,2E2,1.93E2,1.21E4,6.154E3,2.2E3,6.18E2,1.32E2,6.8E1,6.5E1,1.28E2,6.726E3,5.374E3,3.738E3,2.416E3,1.383E3,8.17E2,3.42E2,2.76E2,6.5E1,6.7E1,6E0,5.9E1,6.649E3,7.7E1,3.027E3,2.347E3,2.092E3,1.646E3,1.321E3,1.095E3,7.68E2,6.15E2,5.42E2,2.75E2,2.31E2,1.11E2,1.44E2,1.32E2,3.712E3,2.937E3,4.8E1,2.9E1,2.345E3,6.82E2,2.34E3,7E0,2.083E3,9E0,1.638E3,8E0,1.312E3,9E0,1.084E3,1.1E1,7.54E2,1.4E1,5.94E2,2.1E1,5.29E2,1.3E1,4.4E1,2.31E2,1.35E2,9.6E1,5.3E1,5.8E1],"tree_param":{"num_deleted":"0","num_feature":"32","num_nodes":"71","size_leaf_vector":"1"}},{"base_weights":[4.2161737E-3,-1.3531773E-1,7.3796196E0,-3.0252567E-1,1.1012819E0,4.871215E0,9.93893E0,-4.4412273E-1,3.591311E-2,8.016552E-1,2.1763437E0,4.258285E0,6.041996E0,5.4718345E-1,8.095355E-1,-5.294334E-1,-3.2770085E-1,-7.562542E-2,2.2638017E-1,6.109026E-1,1.1332986E0,1.7906071E0,2.7842405E0,3.0883923E-1,3.68763E-1,5.037672E-1,3.4547716E-1,-5.6335485E-1,-4.6946758E-1,-3.8114053E-1,-2.6944837E-1,-1.4033997E-1,-4.1654925E-3,1.6447966E-1,3.2920197E-1,5.145396E-1,7.3991805E-1,1.0030953E0,1.3138101E0,1.6261054E0,1.615113E-1,2.0459233E-1,2.57267E-1,-4.33413E-2,-5.469978E-2,-3.9664984E-2,-3.631045E-2,-3.258232E-2,-2.8019331E-2,-2.4436286E-2,-1.9220361E-2,-1.4248738E-2,-8.867568E-3,-2.9032074E-3,3.1043356E-3,9.688165E-3,1.6183447E-2,2.8247863E-2,1.9273592E-2,3.7204705E-2,4.6812467E-2,5.316665E-2,6.3039534E-2,7.60809E-2,8.715068E-2,1.06568426E-1,6.0552433E-2,1.3941215E-1,1.1859453E-1],"categories":[],"categories_nodes":[],"categories_segments":[],"categories_sizes":[],"default_left":[0,0,0,0,0,0,0,0,0,0,0,0,0,0,0,0,0,0,0,0,0,0,0,0,0,0,0,0,0,0,0,0,0,0,0,0,0,0,0,0,0,0,0,0,0,0,0,0,0,0,0,0,0,0,0,0,0,0,0,0,0,0,0,0,0,0,0,0,0],"id":18,"left_children":[1,3,5,7,9,11,13,15,17,19,21,23,25,-1,-1,27,29,31,33,35,37,39,41,-1,-1,-1,-1,43,45,47,49,51,53,55,57,59,61,63,65,67,-1,-1,-1,-1,-1,-1,-1,-1,-1,-1,-1,-1,-1,-1,-1,-1,-1,-1,-1,-1,-1,-1,-1,-1,-1,-1,-1,-1,-1],"loss_changes":[2.228112E4,4.3936865E3,2.5308574E3,8.970596E2,8.132363E2,1.20351074E2,3.970508E1,1.3081396E2,1.1734386E2,1.24454834E2,1.2376001E2,6.401367E-1,1.6416016E0,0E0,0E0,1.5120117E1,1.7215149E1,1.6092085E1,1.2880516E1,1.5158569E1,1.54198E1,9.120605E0,1.1953613E1,0E0,0E0,0E0,0E0,1.2130737E1,8.1256104E-1,2.1310425E0,2.6848755E0,1.9866753E0,2.2884533E0,2.036129E0,1.4693909E0,2.1560974E0,1.2723389E0,6.654968E-1,1.8292236E0,4.932251E-1,0E0,0E0,0E0,0E0,0E0,0E0,0E0,0E0,0E0,0E0,0E0,0E0,0E0,0E0,0E0,0E0,0E0,0E0,0E0,0E0,0E0,0E0,0E0,0E0,0E0,0E0,0E0,0E0,0E0],"parents":[2147483647,0,0,1,1,2,2,3,3,4,4,5,5,6,6,7,7,8,8,9,9,10,10,11,11,12,12,15,15,16,16,17,17,18,18,19,19,20,20,21,21,22,22,27,27,28,28,29,29,30,30,31,31,32,32,33,33,34,34,35,35,36,36,37,37,38,38,39,39],"right_children":[2,4,6,8,10,12,14,16,18,20,22,24,26,-1,-1,28,30,32,34,36,38,40,42,-1,-1,-1,-1,44,46,48,50,52,54,56,58,60,62,64,66,68,-1,-1,-1,-1,-1,-1,-1,-1,-1,-1,-1,-1,-1,-1,-1,-1,-1,-1,-1,-1,-1,-1,-1,-1,-1,-1,-1,-1,-1],"split_conditions":[1.65E1,3.8E0,3.09E1,1.4E0,8.2E0,2.4E1,1.6493075E0,5E-1,2.5E0,5.6E0,1.14E1,1.97E1,6E0,5.4718345E-1,8.095355E-1,2E-1,9E-1,1.9E0,3.2E0,4.7E0,6.8E0,9.7E0,1.45E1,3.0883923E-1,3.68763E-1,5.037672E-1,3.4547716E-1,4.3E-1,3E-1,7E-1,1.1E0,1.6E0,2.2E0,2.8E0,3.9E-1,4.3E0,5E0,6.3E0,2.04E1,3.7E-1,1.615113E-1,2.0459233E-1,2.57267E-1,-4.33413E-2,-5.469978E-2,-3.9664984E-2,-3.631045E-2,-3.258232E-2,-2.8019331E-2,-2.4436286E-2,-1.9220361E-2,-1.4248738E-2,-8.867568E-3,-2.9032074E-3,3.1043356E-3,9.688165E-3,1.6183447E-2,2.8247863E-2,1.9273592E-2,3.7204705E-2,4.6812467E-2,5.316665E-2,6.3039534E-2,7.60809E-2,8.715068E-2,1.06568426E-1,6.0552433E-2,1.3941215E-1,1.1859453E-1],"split_indices":[13,13,13,13,13,13,16,13,13,13,13,13,1,0,0,13,13,13,13,13,13,13,13,0,0,0,0,10,13,13,13,13,13,13,10,13,13,13,14,10,0,0,0,0,0,0,0,0,0,0,0,0,0,0,0,0,0,0,0,0,0,0,0,0,0,0,0,0,0],"split_type":[0,0,0,0,0,0,0,0,0,0,0,0,0,0,0,0,0,0,0,0,0,0,0,0,0,0,0,0,0,0,0,0,0,0,0,0,0,0,0,0,0,0,0,0,0,0,0,0,0,0,0,0,0,0,0,0,0,0,0,0,0,0,0,0,0,0,0,0,0],"sum_hessian":[2.1648E4,2.1247E4,4.01E2,1.8717E4,2.53E3,2.04E2,1.97E2,1.3196E4,5.521E3,1.98E3,5.5E2,1.37E2,6.7E1,1.3E1,1.84E2,7.613E3,5.583E3,3.482E3,2.039E3,1.259E3,7.21E2,3.39E2,2.11E2,7E1,6.7E1,5.6E1,1.1E1,4.856E3,2.757E3,2.908E3,2.675E3,1.826E3,1.656E3,1.275E3,7.64E2,7.24E2,5.35E2,4.23E2,2.98E2,2.02E2,1.37E2,1.43E2,6.8E1,4.123E3,7.33E2,1.011E3,1.746E3,1.567E3,1.341E3,1.192E3,1.483E3,7.97E2,1.029E3,9.49E2,7.07E2,5.97E2,6.78E2,5.98E2,1.66E2,4.31E2,2.93E2,2.15E2,3.2E2,2.72E2,1.51E2,2.87E2,1.1E1,1.05E2,9.7E1],"tree_param":{"num_deleted":"0","num_feature":"32","num_nodes":"69","size_leaf_vector":"1"}},{"base_weights":[4.6031224E-3,-7.029746E-2,3.3164792E0,-1.3547169E-1,8.2107806E-1,2.7486398E0,4.8712025E0,-2.0064151E-1,-3.952832E-3,5.7414603E-1,1.2983805E0,1.4335893E0,3.082511E0,5.2044787E0,3.5152898E0,-2.1003528E-1,8.0082186E-2,-2.0523332E-2,4.4339377E-1,3.581872E-1,1.0691795E0,8.7743115E-1,2.0132413E0,1.8093799E0,-2.721984E-1,3.2394972E0,8.825633E-1,5.6756544E0,4.4842443E0,4.8864672E-1,2.5259783E0,-2.2478993E-1,-1.5350097E-1,2.7398843E-1,1.4477023E-2,1.7986624E-2,-1.1979826E-1,3.9153105E-1,1.4672871E-1,1.24282196E-1,5.5673856E-1,7.291388E-1,1.5779332E0,4.9766973E-1,1.2273486E0,1.413243E0,3.0266738E0,9.0038157E-1,2.5227914E0,-4.8403453E-2,-7.157243E-4,2.1023111E0,3.6550417E0,2.7807406E-1,1.3936304E-1,3.44334E0,6.1425905E0,5.382435E0,3.0138657E0,3.715107E-1,9.768978E-1,-1.688989E-2,-2.0921392E-2,-1.0190959E-2,-1.6689515E-2,5.548416E-2,1.2984758E-2,-9.4983354E-4,2.7441846E-2,-1.4100096E-3,1.2962836E-2,-1.1426689E-2,-2.4737786E-3,4.0911973E-2,-6.7086276E-3,2.046193E-2,-1.2072061E-2,3.7954073E-2,8.405198E-2,2.3156847E-3,7.186116E-2,1.4688747E-1,2.739658E-2,6.5669544E-2,1.2975348E-2,2.0028551E-1,7.399616E-2,2.359317E-4,1.3121036E-1,2.791501E-1,5.163178E-2,2.7845515E-2,1.0793449E-1,2.71807E-1,7.263249E-2,1.0379401E-1,2.4974078E-1,3.6659777E-1,2.3689193E-1,-1.9434026E-2,5.172515E-2,4.7710046E-1,-4.3494655E-3,3.2033527E-1,5.142801E-1,5.272151E-1,2.224807E-1,1.4077726E-1,3.9185306E-1,1.5000032E-1,4.5154016E-3],"categories":[],"categories_nodes":[],"categories_segments":[],"categories_sizes":[],"default_left":[0,0,0,0,0,0,0,0,0,0,0,0,0,0,0,0,0,0,0,0,0,0,0,0,0,0,0,0,0,0,0,0,0,0,0,0,0,0,0,0,0,0,0,0,0,0,0,0,0,0,0,0,0,0,0,0,0,0,0,0,0,0,0,0,0,0,0,0,0,0,0,0,0,0,0,0,0,0,0,0,0,0,0,0,0,0,0,0,0,0,0,0,0,0,0,0,0,0,0,0,0,0,0,0,0,0,0,0,0,0,0],"id":19,"left_children":[1,3,5,7,9,11,13,15,17,19,21,23,25,27,29,31,33,35,37,39,41,43,45,47,49,51,53,55,57,-1,59,61,63,65,67,69,71,73,-1,75,77,79,81,83,85,87,89,91,93,-1,-1,95,97,99,-1,101,103,105,107,-1,109,-1,-1,-1,-1,-1,-1,-1,-1,-1,-1,-1,-1,-1,-1,-1,-1,-1,-1,-1,-1,-1,-1,-1,-1,-1,-1,-1,-1,-1,-1,-1,-1,-1,-1,-1,-1,-1,-1,-1,-1,-1,-1,-1,-1,-1,-1,-1,-1,-1,-1],"loss_changes":[5.339088E3,1.2227041E3,4.0607764E2,1.6808298E2,1.6808026E2,1.4923853E2,3.777124E1,3.461212E1,4.8149734E1,1.0071509E2,1.4479358E2,4.7440628E1,9.308447E1,7.1293945E0,5.5529938E1,1.0512878E1,5.3737183E0,2.3979181E1,1.5792625E1,3.0560966E1,4.826892E1,4.0278168E1,1.0472888E2,3.6295593E1,1.1598959E0,1.14603516E2,9.704437E0,3.626184E1,4.10484E1,0E0,6.707907E1,4.9469604E0,3.7267494E0,4.8154793E0,2.798825E0,2.3188738E1,3.56711E0,1.2907089E1,0E0,1.1085308E1,1.3862923E1,2.0486473E1,3.5513763E1,1.6032501E1,5.908943E1,3.6628143E1,7.005487E1,6.301243E0,4.3103714E1,0E0,0E0,5.45867E1,1.0730493E2,2.6932127E0,0E0,1.0670332E2,7.2839355E-1,6.24245E1,3.5615463E1,0E0,1.1274359E1,0E0,0E0,0E0,0E0,0E0,0E0,0E0,0E0,0E0,0E0,0E0,0E0,0E0,0E0,0E0,0E0,0E0,0E0,0E0,0E0,0E0,0E0,0E0,0E0,0E0,0E0,0E0,0E0,0E0,0E0,0E0,0E0,0E0,0E0,0E0,0E0,0E0,0E0,0E0,0E0,0E0,0E0,0E0,0E0,0E0,0E0,0E0,0E0,0E0,0E0],"parents":[2147483647,0,0,1,1,2,2,3,3,4,4,5,5,6,6,7,7,8,8,9,9,10,10,11,11,12,12,13,13,14,14,15,15,16,16,17,17,18,18,19,19,20,20,21,21,22,22,23,23,24,24,25,25,26,26,27,27,28,28,30,30,31,31,32,32,33,33,34,34,35,35,36,36,37,37,39,39,40,40,41,41,42,42,43,43,44,44,45,45,46,46,47,47,48,48,51,51,52,52,53,53,55,55,56,56,57,57,58,58,60,60],"right_children":[2,4,6,8,10,12,14,16,18,20,22,24,26,28,30,32,34,36,38,40,42,44,46,48,50,52,54,56,58,-1,60,62,64,66,68,70,72,74,-1,76,78,80,82,84,86,88,90,92,94,-1,-1,96,98,100,-1,102,104,106,108,-1,110,-1,-1,-1,-1,-1,-1,-1,-1,-1,-1,-1,-1,-1,-1,-1,-1,-1,-1,-1,-1,-1,-1,-1,-1,-1,-1,-1,-1,-1,-1,-1,-1,-1,-1,-1,-1,-1,-1,-1,-1,-1,-1,-1,-1,-1,-1,-1,-1,-1,-1],"split_conditions":[7.3E1,7.1E1,2.6265929E0,1E0,4.6E0,1.5969445E0,1E0,6.3E1,6.3E1,1E0,1E0,2.1691666E0,1E0,1E0,8E0,6.1E1,2.3333333E-1,1E0,9.6E0,1.8177285E0,2.834626E0,2.0763888E0,1.7E1,1.4099723E0,1E-1,5.5E-1,1E0,9.3333334E-1,2.75E0,4.8864672E-1,8.660254E-1,1E0,1E0,1.57E0,2.2584488E0,6.1E1,1E0,1E0,1.4672871E-1,1E0,3.2E0,2E0,3.65E0,1.31E1,7.5E0,2.1444445E0,6.123234E-17,1.2E1,1.05E1,-4.8403453E-2,-7.157243E-4,2.7260387E0,8.660254E-1,8.660254E-1,1.3936304E-1,5.6666666E-1,-5E-1,1.7E1,9.6E0,3.715107E-1,1E0,-1.688989E-2,-2.0921392E-2,-1.0190959E-2,-1.6689515E-2,5.548416E-2,1.2984758E-2,-9.4983354E-4,2.7441846E-2,-1.4100096E-3,1.2962836E-2,-1.1426689E-2,-2.4737786E-3,4.0911973E-2,-6.7086276E-3,2.046193E-2,-1.2072061E-2,3.7954073E-2,8.405198E-2,2.3156847E-3,7.186116E-2,1.4688747E-1,2.739658E-2,6.5669544E-2,1.2975348E-2,2.0028551E-1,7.399616E-2,2.359317E-4,1.3121036E-1,2.791501E-1,5.163178E-2,2.7845515E-2,1.0793449E-1,2.71807E-1,7.263249E-2,1.0379401E-1,2.4974078E-1,3.6659777E-1,2.3689193E-1,-1.9434026E-2,5.172515E-2,4.7710046E-1,-4.3494655E-3,3.2033527E-1,5.142801E-1,5.272151E-1,2.224807E-1,1.4077726E-1,3.9185306E-1,1.5000032E-1,4.5154016E-3],"split_indices":[12,12,16,4,14,16,23,12,12,25,21,17,4,21,0,12,14,3,15,16,17,16,14,16,15,14,22,15,15,0,7,3,3,16,16,12,24,31,0,31,14,2,15,14,14,17,6,0,14,0,0,17,7,7,0,15,6,0,15,0,7,0,0,0,0,0,0,0,0,0,0,0,0,0,0,0,0,0,0,0,0,0,0,0,0,0,0,0,0,0,0,0,0,0,0,0,0,0,0,0,0,0,0,0,0,0,0,0,0,0,0],"split_type":[0,0,0,0,0,0,0,0,0,0,0,0,0,0,0,0,0,0,0,0,0,0,0,0,0,0,0,0,0,0,0,0,0,0,0,0,0,0,0,0,0,0,0,0,0,0,0,0,0,0,0,0,0,0,0,0,0,0,0,0,0,0,0,0,0,0,0,0,0,0,0,0,0,0,0,0,0,0,0,0,0,0,0,0,0,0,0,0,0,0,0,0,0,0,0,0,0,0,0,0,0,0,0,0,0,0,0,0,0,0,0],"sum_hessian":[2.152E4,2.1045E4,4.75E2,1.9612E4,1.433E3,3.5E2,1.25E2,1.3113E4,6.499E3,9.46E2,4.87E2,7.2E1,2.78E2,9.8E1,2.7E1,1.2689E4,4.24E2,6.268E3,2.31E2,6.6E2,2.86E2,3.08E2,1.79E2,5.9E1,1.3E1,2.59E2,1.9E1,5.5E1,4.3E1,6E0,2.1E1,1.0059E4,2.63E3,1.06E2,3.18E2,4.516E3,1.752E3,2.24E2,7E0,3.04E2,3.56E2,1.73E2,1.13E2,1.49E2,1.59E2,1.14E2,6.5E1,2.7E1,3.2E1,5E0,8E0,7.1E1,1.88E2,1.2E1,7E0,1.1E1,4.4E1,2.5E1,1.8E1,8E0,1.3E1,7.338E3,2.721E3,1.788E3,8.42E2,2.1E1,8.5E1,2.95E2,2.3E1,3.621E3,8.95E2,1.39E3,3.62E2,1.79E2,4.5E1,2.06E2,9.8E1,3.07E2,4.9E1,3.4E1,1.39E2,9.3E1,2E1,7.5E1,7.4E1,2.9E1,1.3E2,1.6E1,9.8E1,5.4E1,1.1E1,1.3E1,1.4E1,2E1,1.2E1,4.1E1,3E1,7.8E1,1.1E2,5E0,7E0,6E0,5E0,7E0,3.7E1,1.6E1,9E0,1.2E1,6E0,6E0,7E0],"tree_param":{"num_deleted":"0","num_feature":"32","num_nodes":"111","size_leaf_vector":"1"}},{"base_weights":[2.2481773E-3,-1.193752E-1,6.544654E0,-2.8171286E-1,9.1634595E-1,4.3858094E0,8.736184E0,-4.072736E-1,9.827797E-4,6.293791E-1,1.795037E0,3.7993953E0,5.458174E0,7.3501673E0,7.5578827E-1,-4.8926628E-1,-3.138912E-1,-8.710185E-2,1.691875E-1,4.751533E-1,9.044792E-1,1.4315959E0,2.3908408E0,2.7391347E-1,3.3146223E-1,4.8127776E-1,4.180713E0,7.689069E0,3.3501732E-1,-4.7391093E-1,-1.0488415E0,-3.6415586E-1,-2.6065743E-1,-7.9028584E-2,-7.0579267E-1,1.7863792E-1,-3.0167264E-1,5.0324464E-1,-9.9359736E-2,9.4227326E-1,4.0331838E-1,1.5534797E0,1.0438634E0,2.04354E0,2.7270808E0,3.6354584E-1,2.1073487E-1,3.861241E-1,8.144812E0,-3.64352E-2,-4.1833058E-2,-7.555636E-2,-1.02026425E-1,-2.8875396E-2,-7.5189665E-2,-2.0509202E-2,-6.600005E-2,-1.0336022E-2,2.473425E-4,-4.423644E-2,-6.7983314E-2,9.720594E-3,1.9949045E-2,-1.1566867E-2,-3.4465715E-2,3.217406E-2,4.823521E-2,5.9139975E-3,-2.02287E-2,6.727321E-2,8.818751E-2,3.7441082E-2,-1.5771503E-2,1.1527907E-1,1.4383397E-1,4.580418E-2,8.680749E-2,1.7593603E-1,1.1617423E-1,1.5965138E-1,2.2542177E-1,6.969735E-1,4.6119043E-1],"categories":[],"categories_nodes":[],"categories_segments":[],"categories_sizes":[],"default_left":[0,0,0,0,0,0,0,0,0,0,0,0,0,0,0,0,0,0,0,0,0,0,0,0,0,0,0,0,0,0,0,0,0,0,0,0,0,0,0,0,0,0,0,0,0,0,0,0,0,0,0,0,0,0,0,0,0,0,0,0,0,0,0,0,0,0,0,0,0,0,0,0,0,0,0,0,0,0,0,0,0,0,0],"id":20,"left_children":[1,3,5,7,9,11,13,15,17,19,21,23,25,27,-1,29,31,33,35,37,39,41,43,-1,-1,-1,45,47,-1,49,51,53,55,57,59,61,63,65,67,69,71,73,75,77,79,-1,-1,-1,81,-1,-1,-1,-1,-1,-1,-1,-1,-1,-1,-1,-1,-1,-1,-1,-1,-1,-1,-1,-1,-1,-1,-1,-1,-1,-1,-1,-1,-1,-1,-1,-1,-1,-1],"loss_changes":[1.7047111E4,3.5364429E3,1.8102617E3,6.454552E2,7.1727026E2,1.0347778E2,1.1911914E2,9.617139E1,8.2890236E1,9.065149E1,1.4798926E2,2.10083E0,2.228357E1,4.1635742E1,0E0,5.6937378E1,1.5602905E1,1.8201841E1,8.598606E0,2.2361969E1,1.4088745E1,1.881781E1,2.4779053E1,0E0,0E0,0E0,8.0752563E-1,4.0274902E1,0E0,5.569824E0,2.7818909E0,5.128784E0,6.620514E0,1.4948441E1,4.2422104E-1,7.553116E0,6.510961E-1,1.2917175E1,1.7655234E0,1.0495422E1,2.2947865E0,6.187134E0,1.3116455E0,8.776123E0,2.585266E0,0E0,0E0,0E0,1.8541748E1,0E0,0E0,0E0,0E0,0E0,0E0,0E0,0E0,0E0,0E0,0E0,0E0,0E0,0E0,0E0,0E0,0E0,0E0,0E0,0E0,0E0,0E0,0E0,0E0,0E0,0E0,0E0,0E0,0E0,0E0,0E0,0E0,0E0,0E0],"parents":[2147483647,0,0,1,1,2,2,3,3,4,4,5,5,6,6,7,7,8,8,9,9,10,10,11,11,12,12,13,13,15,15,16,16,17,17,18,18,19,19,20,20,21,21,22,22,26,26,27,27,29,29,30,30,31,31,32,32,33,33,34,34,35,35,36,36,37,37,38,38,39,39,40,40,41,41,42,42,43,43,44,44,48,48],"right_children":[2,4,6,8,10,12,14,16,18,20,22,24,26,28,-1,30,32,34,36,38,40,42,44,-1,-1,-1,46,48,-1,50,52,54,56,58,60,62,64,66,68,70,72,74,76,78,80,-1,-1,-1,82,-1,-1,-1,-1,-1,-1,-1,-1,-1,-1,-1,-1,-1,-1,-1,-1,-1,-1,-1,-1,-1,-1,-1,-1,-1,-1,-1,-1,-1,-1,-1,-1,-1,-1],"split_conditions":[1.65E1,3.5E0,3.09E1,1.3E0,7.5E0,2.4E1,4.5E1,4E-1,2.4E0,5.2E0,1.05E1,1.97E1,1.6E1,3.3927777E0,7.5578827E-1,4.2E0,8E-1,5.8E0,3.6E0,4E0,5.5E0,3.4E0,1.29E1,2.7391347E-1,3.3146223E-1,4.8127776E-1,1E0,1.6493075E0,3.3501732E-1,1E0,2.5376732E0,5.1E0,4E0,1.9E0,2.068889E0,2.9E0,2.0633333E0,4.2E0,9.8E-1,6.3E0,3.0663888E0,9.1E0,7.8E0,6.9E0,7E-1,3.6354584E-1,2.1073487E-1,3.861241E-1,1E0,-3.64352E-2,-4.1833058E-2,-7.555636E-2,-1.02026425E-1,-2.8875396E-2,-7.5189665E-2,-2.0509202E-2,-6.600005E-2,-1.0336022E-2,2.473425E-4,-4.423644E-2,-6.7983314E-2,9.720594E-3,1.9949045E-2,-1.1566867E-2,-3.4465715E-2,3.217406E-2,4.823521E-2,5.9139975E-3,-2.02287E-2,6.727321E-2,8.818751E-2,3.7441082E-2,-1.5771503E-2,1.1527907E-1,1.4383397E-1,4.580418E-2,8.680749E-2,1.7593603E-1,1.1617423E-1,1.5965138E-1,2.2542177E-1,6.969735E-1,4.6119043E-1],"split_indices":[13,13,13,13,13,13,13,13,13,13,13,13,0,16,0,11,13,11,11,11,11,11,13,0,0,0,21,16,0,4,16,11,11,13,16,13,16,13,10,13,16,13,13,11,9,0,0,0,24,0,0,0,0,0,0,0,0,0,0,0,0,0,0,0,0,0,0,0,0,0,0,0,0,0,0,0,0,0,0,0,0,0,0],"split_type":[0,0,0,0,0,0,0,0,0,0,0,0,0,0,0,0,0,0,0,0,0,0,0,0,0,0,0,0,0,0,0,0,0,0,0,0,0,0,0,0,0,0,0,0,0,0,0,0,0,0,0,0,0,0,0,0,0,0,0,0,0,0,0,0,0,0,0,0,0,0,0,0,0,0,0,0,0,0,0,0,0,0,0],"sum_hessian":[2.1421E4,2.1031E4,3.9E2,1.8182E4,2.849E3,1.98E2,1.92E2,1.259E4,5.592E3,2.149E3,7E2,1.31E2,6.7E1,6.9E1,1.23E2,6.701E3,5.889E3,3.67E3,1.922E3,1.379E3,7.7E2,4.37E2,2.63E2,6.8E1,6.3E1,4.4E1,2.3E1,6.1E1,8E0,6.524E3,1.77E2,3.025E3,2.864E3,3.624E3,4.6E1,1.885E3,3.7E1,1.315E3,6.4E1,7.15E2,5.5E1,3.3E2,1.07E2,1.33E2,1.3E2,1.7E1,6E0,1E1,5.1E1,4.747E3,1.777E3,1.25E2,5.2E1,3.01E3,1.5E1,2.844E3,2E1,2.25E3,1.374E3,2.5E1,2.1E1,1.045E3,8.4E2,1.8E1,1.9E1,6.56E2,6.59E2,3E1,3.4E1,4.42E2,2.73E2,5E1,5E0,2.31E2,9.9E1,1E1,9.7E1,1.03E2,3E1,1.7E1,1.13E2,3.9E1,1.2E1],"tree_param":{"num_deleted":"0","num_feature":"32","num_nodes":"83","size_leaf_vector":"1"}},{"base_weights":[4.945304E-3,-1.0822608E-1,6.055414E0,-2.4901819E-1,9.2340136E-1,4.0749154E0,8.065286E0,-3.6877435E-1,3.4848735E-2,6.861341E-1,1.8644158E0,3.5796802E0,5.0321436E0,6.8572454E0,6.9372916E-1,-4.4125113E-1,-2.6943457E-1,-5.916913E-2,1.936703E-1,5.169328E-1,9.8655427E-1,1.6207118E0,2.45451E0,2.563267E-1,3.8676538E0,4.4235674E-1,3.2404196E-1,3.9309342E0,7.334508E0,-4.2935324E-1,-1.017164E0,-2.653428E-1,-8.34697E-1,-5.0260063E-2,-5.89045E-1,2.0687649E-1,-3.160614E-1,5.434364E-1,2.7677355E-2,1.0428846E0,5.93867E-1,1.7523667E0,1.1867446E0,2.182936E-1,2.1961982E0,2.5814128E-1,3.3426067E-1,2.0648254E-1,3.8671985E-1,5.1608896E0,8.235455E0,-3.6404945E-2,-3.0770237E-2,-7.108398E-2,-9.542602E-2,-2.4241008E-2,-1.6211562E-2,-5.2729547E-2,-7.7083185E-2,-8.4434E-3,1.0183998E-3,-3.0180892E-2,-5.5946264E-2,1.2303979E-2,2.3675758E-2,-1.8108614E-2,-5.667072E-2,3.7198093E-2,5.3983774E-2,1.2925319E-2,-1.3263332E-2,7.4150674E-2,9.967693E-2,2.0232344E-2,5.4043107E-2,1.2590268E-1,1.616363E-1,6.8892926E-2,1.04055E-1,1.20260485E-1,1.8169717E-1,4.6758038E-1,2.0595302E-1,7.042363E-1,2.828635E-1],"categories":[],"categories_nodes":[],"categories_segments":[],"categories_sizes":[],"default_left":[0,0,0,0,0,0,0,0,0,0,0,0,0,0,0,0,0,0,0,0,0,0,0,0,0,0,0,0,0,0,0,0,0,0,0,0,0,0,0,0,0,0,0,0,0,0,0,0,0,0,0,0,0,0,0,0,0,0,0,0,0,0,0,0,0,0,0,0,0,0,0,0,0,0,0,0,0,0,0,0,0,0,0,0,0],"id":21,"left_children":[1,3,5,7,9,11,13,15,17,19,21,23,25,27,-1,29,31,33,35,37,39,41,43,-1,45,-1,-1,47,49,51,53,55,57,59,61,63,65,67,69,71,73,75,77,-1,79,-1,-1,-1,-1,81,83,-1,-1,-1,-1,-1,-1,-1,-1,-1,-1,-1,-1,-1,-1,-1,-1,-1,-1,-1,-1,-1,-1,-1,-1,-1,-1,-1,-1,-1,-1,-1,-1,-1,-1],"loss_changes":[1.4730691E4,3.067301E3,1.5382363E3,6.317379E2,5.646831E2,7.641016E1,8.181543E1,9.390466E1,8.236031E1,1.0237506E2,6.895679E1,1.6104736E0,8.864136E0,6.7805176E1,0E0,5.1179565E1,1.2426575E1,1.6258965E1,1.3861008E1,1.6772034E1,1.534259E1,1.8423218E1,3.9251099E0,0E0,1.0974121E-1,0E0,0E0,1.4103699E0,7.169873E1,8.253174E0,2.1660461E0,1.2826172E1,8.48999E-2,1.1878113E1,9.59816E-1,9.364655E0,1.5762038E0,1.22699585E1,1.787795E0,1.3610168E1,2.3539314E0,9.722412E0,1.9283295E0,0E0,4.1888428E-1,0E0,0E0,0E0,0E0,1.9487305E1,7.4322754E1,0E0,0E0,0E0,0E0,0E0,0E0,0E0,0E0,0E0,0E0,0E0,0E0,0E0,0E0,0E0,0E0,0E0,0E0,0E0,0E0,0E0,0E0,0E0,0E0,0E0,0E0,0E0,0E0,0E0,0E0,0E0,0E0,0E0,0E0],"parents":[2147483647,0,0,1,1,2,2,3,3,4,4,5,5,6,6,7,7,8,8,9,9,10,10,11,11,12,12,13,13,15,15,16,16,17,17,18,18,19,19,20,20,21,21,22,22,24,24,27,27,28,28,29,29,30,30,31,31,32,32,33,33,34,34,35,35,36,36,37,37,38,38,39,39,40,40,41,41,42,42,44,44,49,49,50,50],"right_children":[2,4,6,8,10,12,14,16,18,20,22,24,26,28,-1,30,32,34,36,38,40,42,44,-1,46,-1,-1,48,50,52,54,56,58,60,62,64,66,68,70,72,74,76,78,-1,80,-1,-1,-1,-1,82,84,-1,-1,-1,-1,-1,-1,-1,-1,-1,-1,-1,-1,-1,-1,-1,-1,-1,-1,-1,-1,-1,-1,-1,-1,-1,-1,-1,-1,-1,-1,-1,-1,-1,-1],"split_conditions":[1.65E1,3.8E0,3.09E1,1.4E0,8.7E0,2.4E1,4.5E1,5E-1,2.5E0,5.7E0,1.29E1,1.97E1,1.6E1,1E-1,6.9372916E-1,5.8E0,4.7E0,4.2E0,4E0,4.1E0,4.3E0,6.7E0,3.7E0,2.563267E-1,1.2E0,4.4235674E-1,3.2404196E-1,1.18E1,1.3333334E0,2E-1,2.1097221E0,1E0,2.032873E0,1.9E0,7.1E0,3.2E0,1.23E1,4.8E0,2.1566668E0,7.2E0,6.3E0,1.05E1,9.7E0,2.182936E-1,-1E-1,2.5814128E-1,3.3426067E-1,2.0648254E-1,3.8671985E-1,2.1E1,3.3417828E0,-3.6404945E-2,-3.0770237E-2,-7.108398E-2,-9.542602E-2,-2.4241008E-2,-1.6211562E-2,-5.2729547E-2,-7.7083185E-2,-8.4434E-3,1.0183998E-3,-3.0180892E-2,-5.5946264E-2,1.2303979E-2,2.3675758E-2,-1.8108614E-2,-5.667072E-2,3.7198093E-2,5.3983774E-2,1.2925319E-2,-1.3263332E-2,7.4150674E-2,9.967693E-2,2.0232344E-2,5.4043107E-2,1.2590268E-1,1.616363E-1,6.8892926E-2,1.04055E-1,1.20260485E-1,1.8169717E-1,4.6758038E-1,2.0595302E-1,7.042363E-1,2.828635E-1],"split_indices":[13,13,13,13,13,13,13,13,13,13,13,13,0,15,0,11,11,11,11,11,11,11,11,0,15,0,0,11,14,13,16,13,16,13,11,13,11,13,16,13,13,13,13,0,9,0,0,0,0,0,16,0,0,0,0,0,0,0,0,0,0,0,0,0,0,0,0,0,0,0,0,0,0,0,0,0,0,0,0,0,0,0,0,0,0],"split_type":[0,0,0,0,0,0,0,0,0,0,0,0,0,0,0,0,0,0,0,0,0,0,0,0,0,0,0,0,0,0,0,0,0,0,0,0,0,0,0,0,0,0,0,0,0,0,0,0,0,0,0,0,0,0,0,0,0,0,0,0,0,0,0,0,0,0,0,0,0,0,0,0,0,0,0,0,0,0,0,0,0,0,0,0,0],"sum_hessian":[2.151E4,2.1116E4,3.94E2,1.8581E4,2.535E3,2E2,1.94E2,1.3068E4,5.513E3,2.026E3,5.09E2,1.35E2,6.5E1,6.9E1,1.25E2,7.553E3,5.515E3,3.463E3,2.05E3,1.298E3,7.28E2,3.63E2,1.46E2,6.4E1,7.1E1,4E1,2.5E1,1.1E1,5.8E1,7.402E3,1.51E2,5.477E3,3.8E1,3.407E3,5.6E1,1.999E3,5.1E1,1.231E3,6.7E1,6.35E2,9.3E1,2.76E2,8.7E1,6.6E1,8E1,2.7E1,4.4E1,6E0,5E0,1.9E1,3.9E1,4.693E3,2.709E3,9.1E1,6E1,3.418E3,2.059E3,1.9E1,1.9E1,1.815E3,1.592E3,2.1E1,3.5E1,1.255E3,7.44E2,4.3E1,8E0,7.74E2,4.57E2,4E1,2.7E1,4.08E2,2.27E2,1.9E1,7.4E1,1.7E2,1.06E2,2.5E1,6.2E1,1E1,7E1,1.4E1,5E0,3.4E1,5E0],"tree_param":{"num_deleted":"0","num_feature":"32","num_nodes":"85","size_leaf_vector":"1"}},{"base_weights":[7.211979E-3,-9.019288E-2,2.3226175E0,-1.0543436E-1,8.45724E-1,1.7885196E0,2.976804E0,-1.5413302E-1,-7.905999E-3,4.8067483E-1,1.6369306E0,1.6324382E0,3.070531E0,2.4378786E0,3.5948846E0,-1.6823202E-1,-2.1118723E-2,-4.0011078E-2,2.7678704E-1,9.3731517E-1,2.1710071E-1,1.290062E0,3.602347E0,1.8912141E0,1.2073369E0,2.4819026E0,4.44177E0,4.5035777E0,2.2447772E0,2.165585E0,3.791092E0,-1.5589666E-1,-1.9994988E-1,-3.0750075E-2,2.9717463E-1,-1.3587921E-2,-1.07783556E-1,3.7727413E-1,9.5113896E-2,4.395083E-1,1.8456621E0,3.544437E-1,-1.2904488E-1,1.8001688E0,7.8293926E-1,1.6314514E-1,4.0664428E-1,1.6246533E0,3.0082636E0,1.4437059E0,4.4904822E-1,3.4225314E0,4.0203694E-1,4.3406957E-1,1.766927E-1,4.4398162E-1,1.7615259E-1,2.6687472E0,1.3741578E0,2.8640935E0,5.376484E-2,3.4526067E0,5.2767205E0,-1.3437383E-2,-8.846035E-3,-1.7108329E-2,-1.4285677E-2,-4.2723822E-3,5.460027E-3,1.066723E-1,1.3558865E-3,-2.8135318E-3,5.331513E-3,-8.928206E-3,3.458413E-2,3.4964576E-2,-5.3394423E-3,2.400148E-3,2.137037E-2,1.4966473E-2,9.8636776E-2,3.4557265E-1,9.168749E-2,2.1487087E-2,7.469445E-2,3.1101427E-3,-3.284779E-2,1.1579146E-1,2.4001126E-1,1.7131188E-4,7.523871E-2,1.3741904E-1,-8.02848E-3,1.2074543E-2,2.837234E-1,6.99227E-2,1.5201505E-1,7.417188E-2,-2.196582E-2,1.7976059E-1,3.409984E-1,-2.2970628E-2,1.0164724E-1,2.3978378E-1,1.08901486E-1,3.0501458E-1,8.520751E-2,3.124669E-1,1.2870048E-1,2.4234821E-1,3.6815104E-1,4.8407787E-1,2.676315E-1],"categories":[],"categories_nodes":[],"categories_segments":[],"categories_sizes":[],"default_left":[0,0,0,0,0,0,0,0,0,0,0,0,0,0,0,0,0,0,0,0,0,0,0,0,0,0,0,0,0,0,0,0,0,0,0,0,0,0,0,0,0,0,0,0,0,0,0,0,0,0,0,0,0,0,0,0,0,0,0,0,0,0,0,0,0,0,0,0,0,0,0,0,0,0,0,0,0,0,0,0,0,0,0,0,0,0,0,0,0,0,0,0,0,0,0,0,0,0,0,0,0,0,0,0,0,0,0,0,0,0,0,0,0],"id":22,"left_children":[1,3,5,7,9,11,13,15,17,19,21,23,25,27,29,31,33,35,37,39,41,43,45,47,49,51,53,55,57,59,61,63,65,67,69,71,73,75,77,79,81,83,85,87,89,-1,-1,91,93,95,97,99,101,-1,-1,-1,-1,103,105,107,-1,109,111,-1,-1,-1,-1,-1,-1,-1,-1,-1,-1,-1,-1,-1,-1,-1,-1,-1,-1,-1,-1,-1,-1,-1,-1,-1,-1,-1,-1,-1,-1,-1,-1,-1,-1,-1,-1,-1,-1,-1,-1,-1,-1,-1,-1,-1,-1,-1,-1,-1,-1],"loss_changes":[4.8547783E3,2.946679E2,2.9782764E2,9.652092E1,9.460393E1,9.076453E1,1.20208496E2,2.5400055E1,6.1874958E1,2.7122814E1,6.576459E1,4.4819458E1,2.9448242E1,7.338135E1,4.1393066E1,4.7283936E0,3.9708357E0,1.0884979E1,1.2440357E1,3.6491356E1,7.009217E0,2.1614075E1,2.363771E1,7.385394E1,2.8915619E1,7.258406E1,1.8019135E1,2.7940582E1,6.790619E1,2.2759293E1,5.9355225E1,4.784607E0,9.40979E-1,2.837092E0,1.0876744E1,7.584905E0,3.5349674E0,1.177243E1,2.7175455E0,1.0643222E1,4.469384E1,4.8506947E0,2.038843E0,1.3838974E1,5.6852207E0,0E0,0E0,3.5178284E1,7.599704E1,3.0827423E1,1.4504327E1,1.5443115E1,8.244725E0,0E0,0E0,0E0,0E0,5.132831E1,4.5192917E1,1.4088821E1,0E0,4.853308E1,1.9191528E1,0E0,0E0,0E0,0E0,0E0,0E0,0E0,0E0,0E0,0E0,0E0,0E0,0E0,0E0,0E0,0E0,0E0,0E0,0E0,0E0,0E0,0E0,0E0,0E0,0E0,0E0,0E0,0E0,0E0,0E0,0E0,0E0,0E0,0E0,0E0,0E0,0E0,0E0,0E0,0E0,0E0,0E0,0E0,0E0,0E0,0E0,0E0,0E0,0E0,0E0],"parents":[2147483647,0,0,1,1,2,2,3,3,4,4,5,5,6,6,7,7,8,8,9,9,10,10,11,11,12,12,13,13,14,14,15,15,16,16,17,17,18,18,19,19,20,20,21,21,22,22,23,23,24,24,25,25,26,26,27,27,28,28,29,29,30,30,31,31,32,32,33,33,34,34,35,35,36,36,37,37,38,38,39,39,40,40,41,41,42,42,43,43,44,44,47,47,48,48,49,49,50,50,51,51,52,52,57,57,58,58,59,59,61,61,62,62],"right_children":[2,4,6,8,10,12,14,16,18,20,22,24,26,28,30,32,34,36,38,40,42,44,46,48,50,52,54,56,58,60,62,64,66,68,70,72,74,76,78,80,82,84,86,88,90,-1,-1,92,94,96,98,100,102,-1,-1,-1,-1,104,106,108,-1,110,112,-1,-1,-1,-1,-1,-1,-1,-1,-1,-1,-1,-1,-1,-1,-1,-1,-1,-1,-1,-1,-1,-1,-1,-1,-1,-1,-1,-1,-1,-1,-1,-1,-1,-1,-1,-1,-1,-1,-1,-1,-1,-1,-1,-1,-1,-1,-1,-1,-1,-1],"split_conditions":[5.9E0,2E0,2.7530556E0,1E0,2.9400551E0,1.86E1,1.08E0,9.8E-1,9.2E-1,1.25E0,1E0,5E0,2.6E0,-7E-1,5E-1,5E0,3.55E0,5E0,5E0,2.448324E0,6E0,1.75E0,9.5E0,4E0,1.2246469E-16,2.1E0,2.5881904E-1,8.4E0,1E0,1E0,2.4E1,4E0,1E0,1.38E1,1E-1,4E0,1.1E0,1.59E1,2.23E0,8.660254E-1,2.4986112E0,4E0,2.5881904E-1,3.9536111E0,1E-1,1.6314514E-1,4.0664428E-1,1.67E0,2.118715E0,9.8E-1,1.8333334E0,5E-1,1E0,4.3406957E-1,1.766927E-1,4.4398162E-1,1.7615259E-1,3.4E0,1E0,5E0,5.376484E-2,1E0,-2.5881904E-1,-1.3437383E-2,-8.846035E-3,-1.7108329E-2,-1.4285677E-2,-4.2723822E-3,5.460027E-3,1.066723E-1,1.3558865E-3,-2.8135318E-3,5.331513E-3,-8.928206E-3,3.458413E-2,3.4964576E-2,-5.3394423E-3,2.400148E-3,2.137037E-2,1.4966473E-2,9.8636776E-2,3.4557265E-1,9.168749E-2,2.1487087E-2,7.469445E-2,3.1101427E-3,-3.284779E-2,1.1579146E-1,2.4001126E-1,1.7131188E-4,7.523871E-2,1.3741904E-1,-8.02848E-3,1.2074543E-2,2.837234E-1,6.99227E-2,1.5201505E-1,7.417188E-2,-2.196582E-2,1.7976059E-1,3.409984E-1,-2.2970628E-2,1.0164724E-1,2.3978378E-1,1.08901486E-1,3.0501458E-1,8.520751E-2,3.124669E-1,1.2870048E-1,2.4234821E-1,3.6815104E-1,4.8407787E-1,2.676315E-1],"split_indices":[11,11,17,4,17,11,10,10,10,15,26,1,15,9,15,1,10,1,1,17,1,15,14,1,5,10,6,14,30,29,14,1,29,9,14,1,11,9,10,6,17,15,6,17,14,0,0,10,17,10,15,6,30,0,0,0,0,15,4,1,0,24,6,0,0,0,0,0,0,0,0,0,0,0,0,0,0,0,0,0,0,0,0,0,0,0,0,0,0,0,0,0,0,0,0,0,0,0,0,0,0,0,0,0,0,0,0,0,0,0,0,0,0],"split_type":[0,0,0,0,0,0,0,0,0,0,0,0,0,0,0,0,0,0,0,0,0,0,0,0,0,0,0,0,0,0,0,0,0,0,0,0,0,0,0,0,0,0,0,0,0,0,0,0,0,0,0,0,0,0,0,0,0,0,0,0,0,0,0,0,0,0,0,0,0,0,0,0,0,0,0,0,0,0,0,0,0,0,0,0,0,0,0,0,0,0,0,0,0,0,0,0,0,0,0,0,0,0,0,0,0,0,0,0,0,0,0,0,0],"sum_hessian":[2.1523E4,2.0655E4,8.68E2,2.0325E4,3.3E2,4.8E2,3.88E2,1.3555E4,6.77E3,2.27E2,1.03E2,4.3E2,5E1,2.1E2,1.78E2,1.2255E4,1.3E3,6.085E3,6.85E2,8.2E1,1.45E2,8.9E1,1.4E1,2.65E2,1.65E2,3.7E1,1.3E1,1.6E1,1.94E2,2.3E1,1.55E2,8.83E3,3.425E3,1.263E3,3.7E1,4.38E3,1.705E3,4.4E2,2.45E2,5.4E1,2.8E1,1.04E2,4.1E1,4.3E1,4.6E1,8E0,6E0,2.16E2,4.9E1,1.25E2,4E1,2.5E1,1.2E1,8E0,5E0,1E1,6E0,1.29E2,6.5E1,1.5E1,8E0,1.29E2,2.6E1,6.969E3,1.861E3,2.067E3,1.358E3,1.029E3,2.34E2,7E0,3E1,3.453E3,9.27E2,1.694E3,1.1E1,3.88E2,5.2E1,1.79E2,6.6E1,4.2E1,1.2E1,5E0,2.3E1,9.2E1,1.2E1,2.6E1,1.5E1,3.5E1,8E0,8E0,3.8E1,2.05E2,1.1E1,8E0,4.1E1,5.7E1,6.8E1,2.4E1,1.6E1,1.2E1,1.3E1,7E0,5E0,1.02E2,2.7E1,6E0,5.9E1,7E0,8E0,9.7E1,3.2E1,1.7E1,9E0],"tree_param":{"num_deleted":"0","num_feature":"32","num_nodes":"113","size_leaf_vector":"1"}},{"base_weights":[4.8126797E-3,-9.680698E-2,5.3484235E0,-2.3233645E-1,7.676475E-1,3.5659688E0,7.2217684E0,-3.4464398E-1,-8.292585E-3,5.327198E-1,1.4878833E0,3.1165023E0,4.3879466E0,6.2512054E0,6.1810195E-1,-3.3283332E-1,-1.0025837E0,-9.4113715E-2,1.2512466E-1,4.0604627E-1,7.6198655E-1,1.1583947E0,1.9299722E0,3.3996327E0,2.832011E0,4.9242845E0,3.5338237E0,3.9935026E0,6.591225E0,-3.9146036E-1,-2.6087925E-1,-8.6396366E-1,-1.1901084E0,-8.498681E-2,-6.76591E-1,1.3911024E-1,-4.4774356E-1,4.3523693E-1,-1.512803E-1,8.007433E-1,2.3285614E-1,1.3033459E0,6.6909796E-1,1.7635456E0,2.3622706E0,2.3370533E-1,3.0981818E-1,2.3367627E-1,